{"learner":{"attributes":{"scikit_learn":"{\"_estimator_type\": \"classifier\"}"},"feature_names":["Pregnancies","Glucose","BloodPressure","SkinThickness","Insulin","BMI","DiabetesPedigreeFunction","Age"],"feature_types":["int","int","int","int","int","float","float","int"],"gradient_booster":{"model":{"gbtree_model_param":{"num_parallel_tree":"1","num_trees":"100"},"iteration_indptr":[0,1,2,3,4,5,6,7,8,9,10,11,12,13,14,15,16,17,18,19,20,21,22,23,24,25,26,27,28,29,30,31,32,33,34,35,36,37,38,39,40,41,42,43,44,45,46,47,48,49,50,51,52,53,54,55,56,57,58,59,60,61,62,63,64,65,66,67,68,69,70,71,72,73,74,75,76,77,78,79,80,81,82,83,84,85,86,87,88,89,90,91,92,93,94,95,96,97,98,99,100],"tree_info":[0,0,0,0,0,0,0,0,0,0,0,0,0,0,0,0,0,0,0,0,0,0,0,0,0,0,0,0,0,0,0,0,0,0,0,0,0,0,0,0,0,0,0,0,0,0,0,0,0,0,0,0,0,0,0,0,0,0,0,0,0,0,0,0,0,0,0,0,0,0,0,0,0,0,0,0,0,0,0,0,0,0,0,0,0,0,0,0,0,0,0,0,0,0,0,0,0,0,0,0],"trees":[{"base_weights":[-1.8162007E-2,-6.2888676E-1,1.1880249E0,-1.1003441E0,6.4921185E-2,-4.2557057E-2,1.6276907E0,-1.1797861E0,3.616949E-1,-4.1420716E-1,4.801311E-1,-7.550346E-1,6.1141646E-1,1.2175585E0,6.975587E-1,-1.2835172E0,-5.453608E-1,-4.3096212E-1,1.2206236E0,-3.4164387E-1,-2.3369934E-1,-1.4344962E-1,9.265698E-1,5.690739E-1,1.6021671E0,-4.1665015E-1,-5.6528026E-1,-9.649149E-1,1.487366E-1,-6.736891E-1,4.6071115E-1,1.3951277E0,-1.4344962E-1,1.705367E-1,-2.1582979E-1,1.2145708E0,-1.7163493E-2,1.2318825E0,-1.3760886E-1,5.106901E-1,1.0912264E-1,-3.1644663E-1,9.2351794E-2,-8.97519E-2,-3.5517016E-1,2.2233069E-1,-2.4878994E-1,-2.5265163E-1,1.0912264E-1,-2.4878994E-1,4.040328E-1,3.0761154E-2,4.4614932E-1,5.851913E-2,4.956712E-1,3.0761154E-2,4.5012733E-1,8.3817355E-2,-2.6973575E-1],"categories":[],"categories_nodes":[],"categories_segments":[],"categories_sizes":[],"default_left":[0,0,0,0,0,0,0,0,0,0,0,0,0,0,0,0,0,0,0,0,0,0,0,0,0,0,0,0,0,0,0,0,0,0,0,0,0,0,0,0,0,0,0,0,0,0,0,0,0,0,0,0,0,0,0,0,0,0,0],"id":0,"left_children":[1,3,5,7,9,11,13,15,-1,-1,17,19,21,23,-1,25,27,29,31,-1,33,-1,35,37,39,-1,41,43,45,47,49,51,-1,-1,-1,53,-1,55,57,-1,-1,-1,-1,-1,-1,-1,-1,-1,-1,-1,-1,-1,-1,-1,-1,-1,-1,-1,-1],"loss_changes":[1.0517838E2,3.1069866E1,2.6038467E1,1.1769287E1,2.4243855E1,6.8027687E0,7.292618E0,2.9264832E0,0E0,0E0,2.1617378E1,1.1265471E0,3.0694475E0,5.1700478E0,0E0,2.741562E0,2.904961E0,3.5039728E0,5.85688E0,0E0,2.0491798E0,0E0,1.8468089E0,5.1480474E0,1.2106056E0,0E0,3.593916E0,5.269089E-1,3.1862924E0,2.4045873E0,5.4045305E0,1.766571E0,0E0,0E0,0E0,1.8629537E0,0E0,1.5400095E0,2.1703856E0,0E0,0E0,0E0,0E0,0E0,0E0,0E0,0E0,0E0,0E0,0E0,0E0,0E0,0E0,0E0,0E0,0E0,0E0,0E0,0E0],"parents":[2147483647,0,0,1,1,2,2,3,3,4,4,5,5,6,6,7,7,10,10,11,11,12,12,13,13,15,15,16,16,17,17,18,18,20,20,22,22,23,23,24,24,26,26,27,27,28,28,29,29,30,30,31,31,35,35,37,37,38,38],"right_children":[2,4,6,8,10,12,14,16,-1,-1,18,20,22,24,-1,26,28,30,32,-1,34,-1,36,38,40,-1,42,44,46,48,50,52,-1,-1,-1,54,-1,56,58,-1,-1,-1,-1,-1,-1,-1,-1,-1,-1,-1,-1,-1,-1,-1,-1,-1,-1,-1,-1],"split_conditions":[1.31E2,3E1,3E1,4.55E1,2.7E1,1.46E2,1.66E2,6.6E-1,3.616949E-1,-4.1420716E-1,1.08E2,2.9E1,2E0,3.1E1,6.975587E-1,1.19E2,3.27E1,6.14E-1,9.2E1,-3.4164387E-1,5E0,-1.4344962E-1,8.2E1,7.4E1,6.2E1,-4.1665015E-1,3E0,2E1,1.1E2,3.89E1,1.2E2,1.12E2,-1.4344962E-1,1.705367E-1,-2.1582979E-1,1.6E2,-1.7163493E-2,2.6E1,2.49E2,5.106901E-1,1.0912264E-1,-3.1644663E-1,9.2351794E-2,-8.97519E-2,-3.5517016E-1,2.2233069E-1,-2.4878994E-1,-2.5265163E-1,1.0912264E-1,-2.4878994E-1,4.040328E-1,3.0761154E-2,4.4614932E-1,5.851913E-2,4.956712E-1,3.0761154E-2,4.5012733E-1,8.3817355E-2,-2.6973575E-1],"split_indices":[1,7,5,5,5,1,1,6,0,0,1,3,0,7,0,1,5,6,2,0,0,0,2,2,7,0,0,3,1,5,4,4,0,0,0,1,0,3,4,0,0,0,0,0,0,0,0,0,0,0,0,0,0,0,0,0,0,0,0],"split_type":[0,0,0,0,0,0,0,0,0,0,0,0,0,0,0,0,0,0,0,0,0,0,0,0,0,0,0,0,0,0,0,0,0,0,0,0,0,0,0,0,0,0,0,0,0,0,0,0,0,0,0,0,0,0,0,0,0,0,0],"sum_hessian":[1.4076543E2,9.37672E1,4.699823E1,5.5480835E1,3.828636E1,1.2609281E1,3.4388947E1,5.4105278E1,1.3755579E0,8.024088E0,3.0262274E1,5.960751E0,6.64853E0,2.3384485E1,1.1004463E1,4.5622673E1,8.482607E0,1.3755579E1,1.6506695E1,2.7511158E0,3.2096353E0,1.3755579E0,5.272972E0,9.628905E0,1.3755579E1,3.897414E1,6.64853E0,5.0437126E0,3.4388947E0,1.1004463E1,2.7511158E0,1.5131137E1,1.3755579E0,1.1462983E0,2.0633368E0,3.8974142E0,1.3755579E0,4.585193E0,5.0437126E0,1.2380021E1,1.3755579E0,4.1266737E0,2.5218563E0,1.8340772E0,3.2096353E0,2.2925966E0,1.1462983E0,9.628905E0,1.3755579E0,1.1462983E0,1.6048176E0,1.1462983E0,1.39848385E1,1.6048176E0,2.2925966E0,1.1462983E0,3.4388947E0,3.6681545E0,1.3755579E0],"tree_param":{"num_deleted":"0","num_feature":"8","num_nodes":"59","size_leaf_vector":"1"}},{"base_weights":[-2.9812708E-2,-5.082583E-1,8.075172E-1,-9.37754E-1,-7.488477E-3,-4.0200133E-2,1.0859482E0,-1.0018629E0,2.4011852E-1,-3.5873228E-1,2.7089933E-1,-6.32227E-1,4.6121538E-1,-1.7282313E-1,1.1570042E0,-1.2420609E0,-7.0478874E-1,-6.361616E-1,6.254134E-1,-5.6749042E-2,-2.7036414E-1,-1.4508928E-1,7.3519665E-1,7.819987E-1,1.5509052E0,-3.8326615E-1,-6.6267185E-2,-9.5478034E-1,-2.220295E-1,-9.731537E-1,1.21646E-1,-2.3631383E-1,9.0076387E-1,6.138188E-2,-8.684751E-2,9.5537573E-1,-1.4230562E-2,4.5265555E-1,1.2563119E0,1.666276E0,-2.9775351E-3,7.906342E-2,-3.195521E-1,1.2590252E-1,-2.0529692E-1,-7.34221E-2,-3.1756738E-1,1.9314128E-1,-8.767343E-2,8.4325165E-2,-2.488365E-1,1.5818183E-1,4.3174228E-1,1.4297868E-1,3.7800995E-1,-3.7489298E-3,4.0980777E-1,2.6722414E-2,4.5331004E-1,8.4206626E-2,5.294671E-1],"categories":[],"categories_nodes":[],"categories_segments":[],"categories_sizes":[],"default_left":[0,0,0,0,0,0,0,0,0,0,0,0,0,0,0,0,0,0,0,0,0,0,0,0,0,0,0,0,0,0,0,0,0,0,0,0,0,0,0,0,0,0,0,0,0,0,0,0,0,0,0,0,0,0,0,0,0,0,0,0,0],"id":1,"left_children":[1,3,5,7,9,11,13,15,-1,-1,17,19,21,-1,23,25,27,29,31,33,-1,-1,35,37,39,-1,-1,41,43,45,47,49,51,-1,-1,53,-1,55,57,59,-1,-1,-1,-1,-1,-1,-1,-1,-1,-1,-1,-1,-1,-1,-1,-1,-1,-1,-1,-1,-1],"loss_changes":[5.518527E1,1.883886E1,1.1869518E1,6.0569916E0,1.4040058E1,4.2551165E0,5.124813E0,2.4017906E0,0E0,0E0,1.1462374E1,9.6192145E-1,2.3766563E0,0E0,4.184078E0,5.906563E-1,2.5449886E0,2.7142086E0,6.2025547E0,2.5095245E-1,0E0,0E0,1.1566277E0,2.6701946E0,3.0421333E0,0E0,0E0,2.2641878E0,2.9858E0,1.8554258E-1,1.0564439E0,2.3522315E0,3.1297302E0,0E0,0E0,1.4052868E-1,0E0,5.880183E0,2.224226E0,1.6432037E0,0E0,0E0,0E0,0E0,0E0,0E0,0E0,0E0,0E0,0E0,0E0,0E0,0E0,0E0,0E0,0E0,0E0,0E0,0E0,0E0,0E0],"parents":[2147483647,0,0,1,1,2,2,3,3,4,4,5,5,6,6,7,7,10,10,11,11,12,12,14,14,15,15,16,16,17,17,18,18,19,19,22,22,23,23,24,24,27,27,28,28,29,29,30,30,31,31,32,32,35,35,37,37,38,38,39,39],"right_children":[2,4,6,8,10,12,14,16,-1,-1,18,20,22,-1,24,26,28,30,32,34,-1,-1,36,38,40,-1,-1,42,44,46,48,50,52,-1,-1,54,-1,56,58,60,-1,-1,-1,-1,-1,-1,-1,-1,-1,-1,-1,-1,-1,-1,-1,-1,-1,-1,-1,-1,-1],"split_conditions":[1.31E2,2.9E1,3E1,4.55E1,2.7E1,1.46E2,1.6E1,3.05E1,2.4011852E-1,-3.5873228E-1,1.01E2,1.37E2,6.5E1,-1.7282313E-1,1.58E2,5E0,5.01E-1,4.3E1,2.53E-1,4.3E1,-2.7036414E-1,-1.4508928E-1,8.2E1,4E1,4.42E1,-3.8326615E-1,-6.6267185E-2,1.42E-1,7E1,1.91E-1,2.8E1,4.2E1,7E0,6.138188E-2,-8.684751E-2,1.67E2,-1.4230562E-2,4.18E1,2.2E-1,1.15E2,-2.9775351E-3,7.906342E-2,-3.195521E-1,1.2590252E-1,-2.0529692E-1,-7.34221E-2,-3.1756738E-1,1.9314128E-1,-8.767343E-2,8.4325165E-2,-2.488365E-1,1.5818183E-1,4.3174228E-1,1.4297868E-1,3.7800995E-1,-3.7489298E-3,4.0980777E-1,2.6722414E-2,4.5331004E-1,8.4206626E-2,5.294671E-1],"split_indices":[1,7,5,5,5,1,3,5,0,0,1,1,2,0,1,0,6,7,6,7,0,0,2,7,5,0,0,6,2,6,3,7,0,0,0,1,0,5,6,4,0,0,0,0,0,0,0,0,0,0,0,0,0,0,0,0,0,0,0,0,0],"split_type":[0,0,0,0,0,0,0,0,0,0,0,0,0,0,0,0,0,0,0,0,0,0,0,0,0,0,0,0,0,0,0,0,0,0,0,0,0,0,0,0,0,0,0,0,0,0,0,0,0,0,0,0,0,0,0,0,0,0,0,0,0],"sum_hessian":[1.3572629E2,8.662325E1,4.9103035E1,4.6160286E1,4.0462963E1,1.2351875E1,3.675116E1,4.4926834E1,1.2334522E0,7.0547457E0,3.340822E1,5.5445175E0,6.807358E0,1.2153884E0,3.553577E1,2.3082556E1,2.1844278E1,9.164763E0,2.4243454E1,2.1518214E0,3.3926961E0,1.3582224E0,5.4491353E0,1.9733837E1,1.5801935E1,2.2064585E1,1.0179707E0,1.37475195E1,8.096759E0,6.147043E0,3.0177202E0,5.9050345E0,1.8338419E1,1.0705508E0,1.0812706E0,4.0804534E0,1.3686821E0,1.2800233E1,6.9336033E0,1.46514015E1,1.1505342E0,1.0269157E0,1.2720604E1,3.42908E0,4.6676793E0,1.0507609E0,5.0962825E0,1.0887176E0,1.9290026E0,3.4348874E0,2.4701471E0,1.1995851E1,6.3425694E0,2.583988E0,1.4964653E0,9.134583E0,3.66565E0,1.4838221E0,5.4497814E0,1.2290387E0,1.3422362E1],"tree_param":{"num_deleted":"0","num_feature":"8","num_nodes":"61","size_leaf_vector":"1"}},{"base_weights":[-2.8281534E-2,-6.914112E-1,3.9376318E-1,-8.9546263E-1,6.6786274E-2,-4.8143762E-1,6.0643876E-1,-9.9452233E-1,-4.604145E-2,-5.029245E-1,6.6184217E-1,-8.042236E-1,3.9298782E-1,9.644794E-2,8.5619336E-1,-1.1861106E0,-5.586988E-1,-1.7080767E-1,4.2663383E-1,-3.0671883E-1,2.1592654E-1,2.8432673E-1,3.5760066E-1,4.7190525E-2,-9.192975E-1,-1.2769021E-1,8.0686426E-1,-5.968896E-1,3.4838334E-1,1.4142376E-2,8.9794064E-1,-6.9231376E-2,-3.677725E-1,-2.8060055E-1,-1.9759355E-1,1.613217E-2,1.8745276E-1,3.666066E-1,-2.5780204E-1,-2.7241716E-1,3.180111E-1,-1.0548948E0,-2.5302324E-1,3.7130255E-1,-1.5913457E-2,-9.273236E-1,5.755031E-2,7.457118E-1,-2.1204247E-1,7.121346E-1,1.2450489E0,2.2217785E-1,-1.3626862E-1,-2.3894416E-1,1.1531164E-1,-3.4154147E-1,-7.953221E-2,-1.16609775E-1,1.3129965E-3,-3.1580374E-1,-7.557632E-2,-1.1040456E-1,2.8241846E-1,-1.9830905E-1,2.8151742E-1,2.320475E-1,-1.09514475E-1,4.554097E-1,2.2439805E-1],"categories":[],"categories_nodes":[],"categories_segments":[],"categories_sizes":[],"default_left":[0,0,0,0,0,0,0,0,0,0,0,0,0,0,0,0,0,0,0,0,0,0,0,0,0,0,0,0,0,0,0,0,0,0,0,0,0,0,0,0,0,0,0,0,0,0,0,0,0,0,0,0,0,0,0,0,0,0,0,0,0,0,0,0,0,0,0,0,0],"id":2,"left_children":[1,3,5,7,9,11,13,15,17,19,21,23,25,27,29,31,33,-1,35,-1,37,39,-1,-1,41,-1,43,45,47,-1,49,-1,-1,-1,51,-1,-1,-1,-1,53,-1,55,57,-1,-1,59,-1,61,63,65,67,-1,-1,-1,-1,-1,-1,-1,-1,-1,-1,-1,-1,-1,-1,-1,-1,-1,-1],"loss_changes":[3.5887062E1,7.772873E0,1.4884869E1,3.2654228E0,4.23235E0,4.799446E0,8.007582E0,2.2759323E0,1.5189054E0,2.627347E0,8.7353826E-1,1.4646144E0,2.022023E0,4.052005E0,1.3934441E0,6.1270905E-1,1.5339203E0,0E0,2.0895559E-1,0E0,4.8680315E0,2.3840418E0,0E0,0E0,7.088947E-1,0E0,1.4126551E0,1.8025594E0,3.893005E0,0E0,1.7168655E0,0E0,0E0,0E0,2.1950336E0,0E0,0E0,0E0,0E0,1.5521426E0,0E0,2.6974106E-1,1.1142869E-1,0E0,0E0,1.2127805E-1,0E0,2.5336695E0,4.616665E0,2.1745539E0,5.9295654E-1,0E0,0E0,0E0,0E0,0E0,0E0,0E0,0E0,0E0,0E0,0E0,0E0,0E0,0E0,0E0,0E0,0E0,0E0],"parents":[2147483647,0,0,1,1,2,2,3,3,4,4,5,5,6,6,7,7,8,8,9,9,10,10,11,11,12,12,13,13,14,14,15,15,16,16,18,18,20,20,21,21,24,24,26,26,27,27,28,28,30,30,34,34,39,39,41,41,42,42,45,45,47,47,48,48,49,49,50,50],"right_children":[2,4,6,8,10,12,14,16,18,20,22,24,26,28,30,32,34,-1,36,-1,38,40,-1,-1,42,-1,44,46,48,-1,50,-1,-1,-1,52,-1,-1,-1,-1,54,-1,56,58,-1,-1,60,-1,62,64,66,68,-1,-1,-1,-1,-1,-1,-1,-1,-1,-1,-1,-1,-1,-1,-1,-1,-1,-1],"split_conditions":[1.12E2,6.65E-1,2.79E1,3.82E1,3E0,1.46E2,2.9E1,3.1E1,3.2E1,3.25E1,1.001E0,5.8E1,3E0,2.8E1,1.06E2,3.7E1,9.5E1,-1.7080767E-1,2.62E-1,-3.0671883E-1,3.81E1,8E0,3.5760066E-1,4.7190525E-2,2.74E1,-1.2769021E-1,2.59E1,1.67E2,1.4E2,1.4142376E-2,8E0,-6.9231376E-2,-3.677725E-1,-2.8060055E-1,9.9E1,1.613217E-2,1.8745276E-1,3.666066E-1,-2.5780204E-1,1.04E2,3.180111E-1,6E1,2.57E-1,3.7130255E-1,-1.5913457E-2,2.7E1,5.755031E-2,1.22E2,1.66E2,1.159E0,1E1,2.2217785E-1,-1.3626862E-1,-2.3894416E-1,1.1531164E-1,-3.4154147E-1,-7.953221E-2,-1.16609775E-1,1.3129965E-3,-3.1580374E-1,-7.557632E-2,-1.1040456E-1,2.8241846E-1,-1.9830905E-1,2.8151742E-1,2.320475E-1,-1.09514475E-1,4.554097E-1,2.2439805E-1],"split_indices":[1,6,5,5,0,1,7,7,3,5,6,2,0,3,4,4,1,0,6,0,5,0,0,0,5,0,5,4,4,0,0,0,0,0,1,0,0,0,0,1,0,7,6,0,0,7,0,4,1,6,0,0,0,0,0,0,0,0,0,0,0,0,0,0,0,0,0,0,0],"split_type":[0,0,0,0,0,0,0,0,0,0,0,0,0,0,0,0,0,0,0,0,0,0,0,0,0,0,0,0,0,0,0,0,0,0,0,0,0,0,0,0,0,0,0,0,0,0,0,0,0,0,0,0,0,0,0,0,0,0,0,0,0,0,0,0,0,0,0,0,0],"sum_hessian":[1.2625467E2,4.885459E1,7.740008E1,3.835199E1,1.0502599E1,1.488436E1,6.2515717E1,3.4193512E1,4.15848E0,5.4446654E0,5.057934E0,1.0929954E1,3.9544065E0,2.100676E1,4.1508957E1,2.2556236E1,1.1637274E1,1.8764466E0,2.2820337E0,2.9155233E0,2.5291421E0,3.8515983E0,1.2063354E0,1.1290416E0,9.800913E0,1.3183615E0,2.636045E0,5.2338243E0,1.5772936E1,2.1412518E0,3.9367702E1,1.1739627E0,2.1382275E1,4.91778E0,6.719494E0,1.2333045E0,1.0487291E0,1.2360882E0,1.293054E0,2.6199906E0,1.2316077E0,7.658927E0,2.1419854E0,1.463519E0,1.172526E0,3.5646825E0,1.6691417E0,9.036007E0,6.7369285E0,2.762939E1,1.1738313E1,1.0382309E0,5.681263E0,1.3389399E0,1.2810508E0,6.526762E0,1.1321652E0,1.0686167E0,1.0733687E0,2.5354967E0,1.0291859E0,1.2187638E0,7.817243E0,5.1517344E0,1.5851943E0,2.6407154E1,1.2222369E0,6.2511334E0,5.4871798E0],"tree_param":{"num_deleted":"0","num_feature":"8","num_nodes":"69","size_leaf_vector":"1"}},{"base_weights":[-2.9351061E-2,-5.813508E-1,2.9249218E-1,-7.7186954E-1,7.378129E-2,-3.931335E-1,4.6681172E-1,-9.887062E-1,-3.6939675E-1,-4.334457E-1,5.690609E-1,-3.2906303E-1,9.0124466E-2,2.553395E-1,9.0434384E-1,-3.4008294E-1,-1.8831965E-1,-8.550994E-1,-2.3213213E-2,-2.740249E-1,1.8314898E-1,2.2630024E-1,2.9051927E-1,3.3120742E-1,-5.1246774E-1,-7.1729E-1,3.550967E-1,9.8966116E-1,-7.0938595E-2,-1.9210708E-1,1.2518184E-1,-2.8919628E-1,-6.3281894E-2,2.5535092E-1,-3.997274E-1,3.0532283E-1,-2.2815214E-1,-1.6426179E-1,2.1475126E-1,5.7918245E-1,-9.893695E-2,-1.6903548E-2,-2.3607504E-1,-2.5019526E-1,-5.2909404E-2,4.262277E-1,-2.621606E-1,1.0633191E0,5.6614567E-2,-9.343791E-2,1.4574537E-1,2.2295474E-1,-1.3010572E-1,-2.3298433E-1,8.760113E-4,7.121848E-2,-1.3833691E-1,-1.01839654E-1,2.7285284E-1,6.0294837E-2,2.290877E-1,3.3769053E-1,9.9211276E-2],"categories":[],"categories_nodes":[],"categories_segments":[],"categories_sizes":[],"default_left":[0,0,0,0,0,0,0,0,0,0,0,0,0,0,0,0,0,0,0,0,0,0,0,0,0,0,0,0,0,0,0,0,0,0,0,0,0,0,0,0,0,0,0,0,0,0,0,0,0,0,0,0,0,0,0,0,0,0,0,0,0,0,0],"id":3,"left_children":[1,3,5,7,9,11,13,15,17,19,21,-1,23,25,27,-1,29,31,33,-1,35,37,-1,39,41,43,45,47,-1,-1,49,-1,-1,51,53,-1,-1,55,-1,57,-1,-1,-1,-1,-1,59,-1,61,-1,-1,-1,-1,-1,-1,-1,-1,-1,-1,-1,-1,-1,-1,-1],"loss_changes":[2.1105253E1,5.515888E0,9.159809E0,2.599369E0,2.951333E0,5.461115E0,5.3518124E0,2.2777195E0,2.2484365E0,1.90941E0,5.856347E-1,0E0,1.6620023E0,4.3366356E0,2.1092644E0,0E0,7.167215E-1,1.8846464E-1,1.0359837E0,0E0,3.459265E0,9.720104E-1,0E0,1.4931487E0,3.7224925E-1,1.2084842E-1,3.7664933E0,8.6828804E-1,0E0,0E0,7.0069575E-1,0E0,0E0,2.2476993E0,6.3602436E-1,0E0,0E0,5.028387E-1,0E0,2.1718879E0,0E0,0E0,0E0,0E0,0E0,2.6867976E0,0E0,3.7542725E-1,0E0,0E0,0E0,0E0,0E0,0E0,0E0,0E0,0E0,0E0,0E0,0E0,0E0,0E0,0E0],"parents":[2147483647,0,0,1,1,2,2,3,3,4,4,5,5,6,6,7,7,8,8,9,9,10,10,12,12,13,13,14,14,16,16,17,17,18,18,20,20,21,21,23,23,24,24,25,25,26,26,27,27,30,30,33,33,34,34,37,37,39,39,45,45,47,47],"right_children":[2,4,6,8,10,12,14,16,18,20,22,-1,24,26,28,-1,30,32,34,-1,36,38,-1,40,42,44,46,48,-1,-1,50,-1,-1,52,54,-1,-1,56,-1,58,-1,-1,-1,-1,-1,60,-1,62,-1,-1,-1,-1,-1,-1,-1,-1,-1,-1,-1,-1,-1,-1,-1],"split_conditions":[1.12E2,6.65E-1,2.5E1,3.1E1,3E0,2.9E1,1.55E2,3.73E1,9.5E1,3.25E1,8E0,-3.2906303E-1,2.4E1,2.66E1,6.3E1,-3.4008294E-1,2.3E1,3.1E1,4.4E1,-2.740249E-1,3.81E1,9.7E-1,2.9051927E-1,1.68E2,7.4E1,5.8E1,1.53E2,4.3E1,-7.0938595E-2,-1.9210708E-1,2.38E-1,-2.8919628E-1,-6.3281894E-2,3E1,7.6E1,3.0532283E-1,-2.2815214E-1,5E0,2.1475126E-1,2.62E1,-9.893695E-2,-1.6903548E-2,-2.3607504E-1,-2.5019526E-1,-5.2909404E-2,5.28E-1,-2.621606E-1,5.4E1,5.6614567E-2,-9.343791E-2,1.4574537E-1,2.2295474E-1,-1.3010572E-1,-2.3298433E-1,8.760113E-4,7.121848E-2,-1.3833691E-1,-1.01839654E-1,2.7285284E-1,6.0294837E-2,2.290877E-1,3.3769053E-1,9.9211276E-2],"split_indices":[1,6,7,7,0,3,1,5,1,5,0,0,7,5,7,0,7,3,7,0,5,6,0,4,2,7,1,3,0,0,6,0,0,3,2,0,0,0,0,5,0,0,0,0,0,6,0,7,0,0,0,0,0,0,0,0,0,0,0,0,0,0,0],"split_type":[0,0,0,0,0,0,0,0,0,0,0,0,0,0,0,0,0,0,0,0,0,0,0,0,0,0,0,0,0,0,0,0,0,0,0,0,0,0,0,0,0,0,0,0,0,0,0,0,0,0,0,0,0,0,0,0,0,0,0,0,0,0,0],"sum_hessian":[1.1684037E2,4.2736256E1,7.410412E1,3.2970055E1,9.7662E0,1.4767198E1,5.9336918E1,2.0479774E1,1.2490281E1,4.886585E0,4.879615E0,5.4951477E0,9.27205E0,4.107011E1,1.826681E1,1.6987919E1,3.4918556E0,4.585981E0,7.9043007E0,2.4770262E0,2.409559E0,3.4688787E0,1.4107358E0,6.944201E0,2.3278491E0,3.2446377E0,3.7825474E1,1.711902E1,1.1477892E0,1.0030146E0,2.488841E0,3.4981525E0,1.0878283E0,4.7280526E0,3.1762483E0,1.2370076E0,1.1725515E0,2.2990823E0,1.1697963E0,5.139775E0,1.8044262E0,1.327276E0,1.0005732E0,2.2232428E0,1.021395E0,3.6373405E1,1.452066E0,1.5377289E1,1.7417303E0,1.1874685E0,1.3013724E0,2.7221873E0,2.005865E0,1.1608739E0,2.0153744E0,1.0622128E0,1.2368695E0,1.3520429E0,3.7877316E0,2.2768784E1,1.3604623E1,1.367743E1,1.6998591E0],"tree_param":{"num_deleted":"0","num_feature":"8","num_nodes":"63","size_leaf_vector":"1"}},{"base_weights":[-3.9451733E-2,-3.0681223E-1,4.156027E-1,-1.0082073E0,-1.2817541E-1,2.1257892E-1,8.7730783E-1,-5.2242663E-2,-3.209693E-1,-4.3605474E-1,1.942868E-1,4.5872644E-2,7.167719E-1,1.6892E-1,1.0012182E0,-5.2136797E-1,2.1120273E-1,-6.0800004E-1,3.1463316E-1,-1.0775547E-1,6.195645E-1,8.9183134E-1,-3.0580599E-2,1.486624E-1,-7.1924694E-2,1.0895854E0,1.1343717E-1,-5.7142895E-1,1.1633826E-1,-2.8326792E-1,4.1816354E-2,4.4269033E-2,5.332314E-1,-7.358443E-1,1.5286145E-1,2.8878537E-1,2.2799756E-1,2.2611808E-2,3.3024573E-1,3.5021204E-1,8.118491E-2,-2.2494592E-1,-7.4985296E-2,1.3293587E-1,-1.2548274E-1,1.9928667E-1,-6.338329E-2,-6.774814E-2,-3.3419842E-1,2.0601372E-1,-6.435376E-2,-7.3442414E-2,2.1201581E-1],"categories":[],"categories_nodes":[],"categories_segments":[],"categories_sizes":[],"default_left":[0,0,0,0,0,0,0,0,0,0,0,0,0,0,0,0,0,0,0,0,0,0,0,0,0,0,0,0,0,0,0,0,0,0,0,0,0,0,0,0,0,0,0,0,0,0,0,0,0,0,0,0,0],"id":4,"left_children":[1,3,5,7,9,11,13,-1,-1,15,17,19,21,23,25,27,-1,29,31,33,35,37,-1,-1,-1,39,-1,41,-1,-1,-1,43,45,47,49,-1,51,-1,-1,-1,-1,-1,-1,-1,-1,-1,-1,-1,-1,-1,-1,-1,-1],"loss_changes":[1.3456756E1,8.589651E0,3.6540446E0,5.329943E-1,5.7046413E0,2.4699879E0,9.01206E-1,0E0,0E0,3.2135906E0,2.9276407E0,2.133246E0,1.1415784E0,5.2169365E-1,1.4827538E-1,1.4870319E0,0E0,1.1462525E0,1.4718196E0,3.2792506E0,4.656937E-1,9.650383E-1,0E0,0E0,0E0,2.1795654E-1,0E0,1.3470469E0,0E0,0E0,0E0,2.4734478E0,1.4966471E0,8.757777E-1,2.9912362E0,0E0,1.0087314E0,0E0,0E0,0E0,0E0,0E0,0E0,0E0,0E0,0E0,0E0,0E0,0E0,0E0,0E0,0E0,0E0],"parents":[2147483647,0,0,1,1,2,2,3,3,4,4,5,5,6,6,9,9,10,10,11,11,12,12,13,13,14,14,15,15,17,17,18,18,19,19,20,20,21,21,25,25,27,27,31,31,32,32,33,33,34,34,36,36],"right_children":[2,4,6,8,10,12,14,-1,-1,16,18,20,22,24,26,28,-1,30,32,34,36,38,-1,-1,-1,40,-1,42,-1,-1,-1,44,46,48,50,-1,52,-1,-1,-1,-1,-1,-1,-1,-1,-1,-1,-1,-1,-1,-1,-1,-1],"split_conditions":[1.34E2,2.7E1,1.67E2,4.9E1,3.1E1,8E0,2.6E1,-5.2242663E-2,-3.209693E-1,4.55E1,1.06E2,4.18E1,5.2E1,3.02E1,8.8E1,7E0,2.1120273E-1,4.91E-1,3.4E-1,2E0,1.43E2,4E1,-3.0580599E-2,1.486624E-1,-7.1924694E-2,5.6E1,1.1343717E-1,5.01E-1,1.1633826E-1,-2.8326792E-1,4.1816354E-2,7.5E1,1.78E2,7.4E1,3E1,2.8878537E-1,4.83E1,2.2611808E-2,3.3024573E-1,3.5021204E-1,8.118491E-2,-2.2494592E-1,-7.4985296E-2,1.3293587E-1,-1.2548274E-1,1.9928667E-1,-6.338329E-2,-6.774814E-2,-3.3419842E-1,2.0601372E-1,-6.435376E-2,-7.3442414E-2,2.1201581E-1],"split_indices":[1,5,1,4,7,0,3,0,0,5,4,5,7,5,2,0,0,6,6,0,1,7,0,0,0,7,0,6,0,0,0,2,4,2,7,0,5,0,0,0,0,0,0,0,0,0,0,0,0,0,0,0,0],"split_type":[0,0,0,0,0,0,0,0,0,0,0,0,0,0,0,0,0,0,0,0,0,0,0,0,0,0,0,0,0,0,0,0,0,0,0,0,0,0,0,0,0,0,0,0,0,0,0,0,0,0,0,0,0],"sum_hessian":[1.0855821E2,6.8586815E1,3.9971397E1,1.297971E1,5.5607105E1,2.8777569E1,1.1193827E1,1.1571853E0,1.1822524E1,2.8266579E1,2.7340528E1,2.2446758E1,6.3308105E0,2.0183403E0,9.175487E0,2.6803503E1,1.4630747E0,3.0376968E0,2.4302832E1,1.8346064E1,4.1006947E0,5.1420083E0,1.1888025E0,1.0036318E0,1.0147085E0,7.380163E0,1.7953236E0,2.5756744E1,1.0467597E0,1.9135032E0,1.1241937E0,1.1402561E1,1.2900271E1,4.845324E0,1.350074E1,1.4084082E0,2.6922863E0,1.3252543E0,3.8167539E0,6.3514647E0,1.0286982E0,1.5707892E1,1.0048851E1,6.1454024E0,5.2571588E0,1.106094E1,1.8393312E0,2.7429943E0,2.1023297E0,5.149083E0,8.351657E0,1.6003428E0,1.0919436E0],"tree_param":{"num_deleted":"0","num_feature":"8","num_nodes":"53","size_leaf_vector":"1"}},{"base_weights":[-2.7311923E-2,-4.4748324E-1,1.9128598E-1,-6.377525E-1,7.061572E-2,-7.522281E-1,2.5873858E-1,-7.5375366E-1,4.1730594E-2,-3.856661E-1,5.901296E-1,-2.8641835E-1,-7.283047E-2,1.4586549E-1,8.452293E-1,-8.6135614E-1,9.145209E-2,-1.3420427E-1,4.2972398E-1,-2.2300749E-1,1.648051E-1,-1.4166008E-2,7.786054E-1,-2.845173E-1,2.4884807E-1,6.479983E-2,9.258445E-1,-3.0376565E-1,-1.187868E-1,1.3829121E-1,-1.0341475E-1,1.8385476E-1,1.6777718E-2,2.2341241E-1,-1.644936E-1,2.8422686E-1,4.8102167E-2,-2.592598E-1,-6.3571264E-3,1.7197783E-1,9.3792844E-1,9.9422663E-1,6.271949E-2,1.2720056E-1,-2.1983124E-1,1.0026985E-1,-1.5269502E-1,2.4037094E-1,2.1807443E-2,7.0299685E-2,3.2625276E-1,7.724756E-2,3.229081E-1],"categories":[],"categories_nodes":[],"categories_segments":[],"categories_sizes":[],"default_left":[0,0,0,0,0,0,0,0,0,0,0,0,0,0,0,0,0,0,0,0,0,0,0,0,0,0,0,0,0,0,0,0,0,0,0,0,0,0,0,0,0,0,0,0,0,0,0,0,0,0,0,0,0],"id":5,"left_children":[1,3,5,7,9,11,13,15,17,19,21,-1,-1,23,25,27,29,-1,31,-1,33,-1,35,37,39,-1,41,-1,43,-1,-1,-1,-1,-1,-1,-1,-1,-1,45,47,49,51,-1,-1,-1,-1,-1,-1,-1,-1,-1,-1,-1],"loss_changes":[9.487953E0,3.5279608E0,4.5246367E0,2.0761566E0,2.690594E0,2.629404E-1,4.129405E0,2.098753E0,1.0898715E0,1.3308098E0,6.678786E-1,0E0,0E0,2.5121198E0,3.1536674E-1,2.102559E0,7.0887464E-1,0E0,1.8120152E-1,0E0,1.7463483E0,0E0,2.7726674E-1,1.7845999E0,2.2212653E0,0E0,2.1864271E-1,0E0,1.8044338E0,0E0,0E0,0E0,0E0,0E0,0E0,0E0,0E0,0E0,1.6268295E0,2.5464249E0,1.966188E-1,1.8740797E-1,0E0,0E0,0E0,0E0,0E0,0E0,0E0,0E0,0E0,0E0,0E0],"parents":[2147483647,0,0,1,1,2,2,3,3,4,4,5,5,6,6,7,7,8,8,9,9,10,10,13,13,14,14,15,15,16,16,18,18,20,20,22,22,23,23,24,24,26,26,28,28,38,38,39,39,40,40,41,41],"right_children":[2,4,6,8,10,12,14,16,18,20,22,-1,-1,24,26,28,30,-1,32,-1,34,-1,36,38,40,-1,42,-1,44,-1,-1,-1,-1,-1,-1,-1,-1,-1,46,48,50,52,-1,-1,-1,-1,-1,-1,-1,-1,-1,-1,-1],"split_conditions":[1.12E2,6.27E-1,1.8E1,3.82E1,3E1,4E0,1.67E2,1E1,3.2E1,3E0,3.27E1,-2.8641835E-1,-7.283047E-2,2.5E1,2.86E1,8E1,3.13E1,-1.3420427E-1,3.8E1,-2.2300749E-1,3E1,-1.4166008E-2,3.72E1,2.9E1,4.55E1,6.479983E-2,1.095E0,-3.0376565E-1,2.6E-1,1.3829121E-1,-1.0341475E-1,1.8385476E-1,1.6777718E-2,2.2341241E-1,-1.644936E-1,2.8422686E-1,4.8102167E-2,-2.592598E-1,3.47E1,2.6E1,8E1,2.9E1,6.271949E-2,1.2720056E-1,-2.1983124E-1,1.0026985E-1,-1.5269502E-1,2.4037094E-1,2.1807443E-2,7.0299685E-2,3.2625276E-1,7.724756E-2,3.229081E-1],"split_indices":[1,6,3,5,3,0,1,0,3,0,5,0,0,7,5,2,5,0,3,0,5,0,5,3,5,0,6,0,6,0,0,0,0,0,0,0,0,0,5,3,2,7,0,0,0,0,0,0,0,0,0,0,0],"split_type":[0,0,0,0,0,0,0,0,0,0,0,0,0,0,0,0,0,0,0,0,0,0,0,0,0,0,0,0,0,0,0,0,0,0,0,0,0,0,0,0,0,0,0,0,0,0,0,0,0,0,0,0,0],"sum_hessian":[1.0136801E2,3.433157E1,6.703644E1,2.4941122E1,9.390448E0,3.7953827E0,6.324106E1,2.1210726E1,3.7303956E0,5.136645E0,4.253803E0,2.0904663E0,1.7049165E0,5.408151E1,9.159548E0,1.8798409E1,2.4123182E0,1.5825559E0,2.1478395E0,2.9011168E0,2.235528E0,1.1418811E0,3.1119218E0,1.0101741E1,4.397977E1,1.4580832E0,7.701465E0,1.5316256E1,3.482152E0,1.2751523E0,1.1371659E0,1.0123613E0,1.1354784E0,1.2084904E0,1.0270375E0,2.0262606E0,1.0856612E0,2.5923913E0,7.5093493E0,4.0690163E1,3.2896073E0,6.677358E0,1.0241067E0,2.0124679E0,1.4696841E0,4.675894E0,2.8334553E0,4.581773E0,3.6108387E1,1.0267211E0,2.2628863E0,1.0844985E0,5.5928597E0],"tree_param":{"num_deleted":"0","num_feature":"8","num_nodes":"53","size_leaf_vector":"1"}},{"base_weights":[-2.1062566E-2,-6.347911E-1,8.564266E-2,-8.1061655E-1,1.8068652E-1,-3.0755877E-1,2.1546268E-1,-3.6524523E-2,-8.661544E-1,9.57501E-2,-1.5311635E-2,-4.0227184E-1,1.3771273E-1,1.0178738E-1,6.4374083E-1,-2.9375517E-1,-2.8586873E-1,-5.246546E-1,6.276128E-2,1.7554654E-2,5.988883E-1,-1.1715277E-1,8.938674E-1,-2.0203441E-1,7.698221E-2,-6.2901276E-1,1.19447656E-1,2.6229188E-1,-4.6738458E-1,-4.7713887E-2,6.850305E-1,1.6990507E-1,7.9224914E-1,1.4379819E-1,-1.5875724E-1,2.9412463E-2,9.9005866E-1,-2.1011047E-1,3.7626732E-2,-2.3323436E-1,4.451587E-2,-3.378477E-2,1.6266005E-1,3.069528E-1,-3.8067665E-2,-7.775225E-2,1.8777317E-1,2.708621E-1,6.228211E-2,3.3289567E-1,2.7105877E-2],"categories":[],"categories_nodes":[],"categories_segments":[],"categories_sizes":[],"default_left":[0,0,0,0,0,0,0,0,0,0,0,0,0,0,0,0,0,0,0,0,0,0,0,0,0,0,0,0,0,0,0,0,0,0,0,0,0,0,0,0,0,0,0,0,0,0,0,0,0,0,0],"id":6,"left_children":[1,3,5,7,9,11,13,-1,15,-1,-1,17,-1,19,21,-1,23,25,27,29,31,33,35,-1,-1,37,-1,-1,39,41,43,45,47,-1,-1,-1,49,-1,-1,-1,-1,-1,-1,-1,-1,-1,-1,-1,-1,-1,-1],"loss_changes":[6.3830056E0,2.2157793E0,4.3135486E0,3.5573673E-1,1.2467311E-1,1.7141029E0,3.0084863E0,0E0,4.4102383E-1,0E0,0E0,1.130264E0,0E0,2.128533E0,2.589559E0,0E0,8.465195E-1,1.7307234E0,2.5212016E0,1.9806296E0,4.7687507E-1,1.264816E0,6.6400194E-1,0E0,0E0,8.5210943E-1,0E0,0E0,8.06843E-1,1.6562878E0,1.24118E0,8.5944664E-1,1.23544216E-1,0E0,0E0,0E0,8.4229755E-1,0E0,0E0,0E0,0E0,0E0,0E0,0E0,0E0,0E0,0E0,0E0,0E0,0E0,0E0],"parents":[2147483647,0,0,1,1,2,2,3,3,4,4,5,5,6,6,8,8,11,11,13,13,14,14,16,16,17,17,18,18,19,19,20,20,21,21,22,22,25,25,28,28,29,29,30,30,31,31,32,32,36,36],"right_children":[2,4,6,8,10,12,14,-1,16,-1,-1,18,-1,20,22,-1,24,26,28,30,32,34,36,-1,-1,38,-1,-1,40,42,44,46,48,-1,-1,-1,50,-1,-1,-1,-1,-1,-1,-1,-1,-1,-1,-1,-1,-1,-1],"split_conditions":[2.68E1,1.52E2,1.08E2,5E1,2.52E1,1.55E2,8E0,-3.6524523E-2,1.32E2,9.57501E-2,-1.5311635E-2,8.2E1,1.3771273E-1,1.66E2,2.59E-1,-2.9375517E-1,3E0,4.6E1,2.49E-1,9.47E-1,3.41E1,1.55E-1,1.25E2,-2.0203441E-1,7.698221E-2,4.2E1,1.19447656E-1,2.6229188E-1,6.96E-1,4.55E1,3.8E1,1.32E2,4.02E1,1.4379819E-1,-1.5875724E-1,2.9412463E-2,1.144E0,-2.1011047E-1,3.7626732E-2,-2.3323436E-1,4.451587E-2,-3.378477E-2,1.6266005E-1,3.069528E-1,-3.8067665E-2,-7.775225E-2,1.8777317E-1,2.708621E-1,6.228211E-2,3.3289567E-1,2.7105877E-2],"split_indices":[5,1,1,4,5,4,0,0,1,0,0,2,0,1,6,0,0,7,6,6,5,6,4,0,0,3,0,0,6,5,7,4,5,0,0,0,6,0,0,0,0,0,0,0,0,0,0,0,0,0,0],"split_type":[0,0,0,0,0,0,0,0,0,0,0,0,0,0,0,0,0,0,0,0,0,0,0,0,0,0,0,0,0,0,0,0,0,0,0,0,0,0,0,0,0,0,0,0,0,0,0,0,0,0,0],"sum_hessian":[9.563811E1,1.3432186E1,8.2205925E1,1.1054649E1,2.3775363E0,2.0064636E1,6.214129E1,1.0629109E0,9.991738E0,1.2519892E0,1.1255472E0,1.8281254E1,1.7833837E0,5.008515E1,1.2056135E1,7.7874594E0,2.2042792E0,1.4371021E1,3.9102318E0,4.3713333E1,6.3718204E0,3.1142144E0,8.94192E0,1.1448747E0,1.0594045E0,1.319699E1,1.1740317E0,1.2885479E0,2.621684E0,4.0665417E1,3.0479162E0,2.563416E0,3.8084047E0,1.2056159E0,1.9085985E0,1.1820034E0,7.7599173E0,1.21221285E1,1.0748607E0,1.5690496E0,1.0526344E0,3.7363773E1,3.3016434E0,1.968074E0,1.0798422E0,1.5430875E0,1.0203286E0,2.7447345E0,1.06367E0,6.6434813E0,1.116436E0],"tree_param":{"num_deleted":"0","num_feature":"8","num_nodes":"51","size_leaf_vector":"1"}},{"base_weights":[-6.9181714E-3,-5.6032646E-1,8.058531E-2,-2.8814816E-1,-1.2950036E-1,-4.5633164E-1,1.4987631E-1,-6.4404833E-1,5.250435E-1,-8.5981184E-1,2.107415E-1,6.353569E-2,5.80855E-1,-3.2089923E-2,-2.3283967E-1,2.6398084E-1,-1.3634226E-2,-3.0150092E-1,-8.508836E-2,2.6821184E-1,-1.1139738E-1,-1.523824E-1,7.6642644E-1,-1.822168E-1,4.3362793E-1,-3.512198E-1,2.5160533E-1,9.003986E-1,-6.949299E-2,-1.3471167E-1,1.02509476E-1,2.717648E-1,8.844676E-2,-1.6064858E-1,1.2089756E-1,-2.0990285E-1,1.7068706E-1,2.7092969E-2,3.2850122E-1],"categories":[],"categories_nodes":[],"categories_segments":[],"categories_sizes":[],"default_left":[0,0,0,0,0,0,0,0,0,0,0,0,0,0,0,0,0,0,0,0,0,0,0,0,0,0,0,0,0,0,0,0,0,0,0,0,0,0,0],"id":7,"left_children":[1,3,5,-1,7,9,11,13,15,17,-1,19,21,-1,-1,-1,-1,-1,-1,23,25,-1,27,29,31,33,35,37,-1,-1,-1,-1,-1,-1,-1,-1,-1,-1,-1],"loss_changes":[4.4695477E0,2.047863E0,3.0359602E0,0E0,2.7709315E0,4.982476E0,2.62E0,2.3573148E-1,7.951932E-1,3.3365822E-1,0E0,2.1998923E0,2.7722785E0,0E0,0E0,0E0,0E0,0E0,0E0,2.1818318E0,2.9946904E0,0E0,1.6092458E0,1.3115759E0,1.105438E0,3.0677881E0,4.5834904E0,1.3893232E0,0E0,0E0,0E0,0E0,0E0,0E0,0E0,0E0,0E0,0E0,0E0],"parents":[2147483647,0,0,1,1,2,2,4,4,5,5,6,6,7,7,8,8,9,9,11,11,12,12,19,19,20,20,22,22,23,23,24,24,25,25,26,26,27,27],"right_children":[2,4,6,-1,8,10,12,14,16,18,-1,20,22,-1,-1,-1,-1,-1,-1,24,26,-1,28,30,32,34,36,38,-1,-1,-1,-1,-1,-1,-1,-1,-1,-1,-1],"split_conditions":[2.68E1,3E0,9.6E1,-2.8814816E-1,1.31E2,8.2E1,1.58E2,2.3E1,7.4E1,7.27E-1,2.107415E-1,7.4E1,2.99E1,-3.2089923E-2,-2.3283967E-1,2.6398084E-1,-1.3634226E-2,-3.0150092E-1,-8.508836E-2,1.09E2,4E1,-1.523824E-1,4.42E1,7E0,1E0,4.29E1,2.33E-1,2.7E1,-6.949299E-2,-1.3471167E-1,1.02509476E-1,2.717648E-1,8.844676E-2,-1.6064858E-1,1.2089756E-1,-2.0990285E-1,1.7068706E-1,2.7092969E-2,3.2850122E-1],"split_indices":[5,0,4,0,1,2,1,5,2,6,0,2,5,0,0,0,0,0,0,1,7,0,5,0,0,5,6,3,0,0,0,0,0,0,0,0,0,0,0],"split_type":[0,0,0,0,0,0,0,0,0,0,0,0,0,0,0,0,0,0,0,0,0,0,0,0,0,0,0,0,0,0,0,0,0,0,0,0,0,0,0],"sum_hessian":[9.036563E1,1.1599856E1,7.876577E1,5.376519E0,6.2233367E0,8.364653E0,7.040112E1,3.4932604E0,2.7300763E0,6.395752E0,1.9689002E0,5.9607086E1,1.0794033E1,1.0467565E0,2.4465036E0,1.3486716E0,1.3814046E0,4.514033E0,1.881719E0,2.7222658E1,3.238443E1,1.3188457E0,9.475187E0,7.284734E0,1.9937925E1,1.952045E1,1.2863978E1,8.44012E0,1.0350677E0,4.921304E0,2.3634295E0,3.2736785E0,1.6664246E1,1.5920589E1,3.5998619E0,2.9165869E0,9.9473915E0,1.9184039E0,6.5217156E0],"tree_param":{"num_deleted":"0","num_feature":"8","num_nodes":"39","size_leaf_vector":"1"}},{"base_weights":[-8.4324805E-3,-3.9695752E-1,8.034536E-2,-5.512707E-1,1.6630974E-1,-5.25266E-1,1.3568248E-1,-7.685759E-1,-1.959252E-1,-5.744769E-2,1.7375545E-1,-2.3764549E-1,6.986301E-2,5.192214E-2,5.8485705E-1,-3.3429474E-2,-8.586096E-1,-1.7993131E-1,2.803834E-1,-1.284983E-1,2.011469E-1,6.937961E-1,-5.9059132E-2,-6.9060594E-2,-2.8617963E-1,-5.4231744E-2,1.8577906E-1,1.6766027E-1,-3.072624E-1,2.5945264E-1,-1.3671385E-1,1.0911056E-1,8.6507213E-1,-3.2913715E-2,3.300354E-1,6.0939893E-2,-1.7023228E-1,9.63241E-2,-1.1972159E-1,1.2464807E-1,-8.1005946E-2,-1.508329E-2,3.108309E-1],"categories":[],"categories_nodes":[],"categories_segments":[],"categories_sizes":[],"default_left":[0,0,0,0,0,0,0,0,0,0,0,0,0,0,0,0,0,0,0,0,0,0,0,0,0,0,0,0,0,0,0,0,0,0,0,0,0,0,0,0,0,0,0],"id":8,"left_children":[1,3,5,7,9,11,13,15,17,-1,-1,-1,-1,19,21,-1,23,-1,25,27,29,31,-1,-1,-1,-1,-1,33,35,37,-1,39,41,-1,-1,-1,-1,-1,-1,-1,-1,-1,-1],"loss_changes":[2.9982843E0,1.4966908E0,2.445207E0,8.470888E-1,7.379168E-1,1.4260178E0,2.4414935E0,3.5842514E-1,1.3694183E0,0E0,0E0,0E0,0E0,1.5462573E0,1.0076532E0,0E0,1.7582226E-1,0E0,6.6623527E-1,1.4372418E0,1.3169067E0,8.267808E-1,0E0,0E0,0E0,0E0,0E0,2.836167E0,2.3296123E0,1.3206164E0,0E0,4.8720276E-1,1.1432896E0,0E0,0E0,0E0,0E0,0E0,0E0,0E0,0E0,0E0,0E0],"parents":[2147483647,0,0,1,1,2,2,3,3,4,4,5,5,6,6,7,7,8,8,13,13,14,14,16,16,18,18,19,19,20,20,21,21,27,27,28,28,29,29,31,31,32,32],"right_children":[2,4,6,8,10,12,14,16,18,-1,-1,-1,-1,20,22,-1,24,-1,26,28,30,32,-1,-1,-1,-1,-1,34,36,38,-1,40,42,-1,-1,-1,-1,-1,-1,-1,-1,-1,-1],"split_conditions":[2.79E1,1.46E2,8.8E1,3.3E1,8E0,8.2E1,1.58E2,5E1,2.69E1,-5.744769E-2,1.7375545E-1,-2.3764549E-1,6.986301E-2,3.1E1,4.42E1,-3.3429474E-2,6E1,-1.7993131E-1,2.59E-1,3.31E1,1.53E2,7E1,-5.9059132E-2,-6.9060594E-2,-2.8617963E-1,-5.4231744E-2,1.8577906E-1,1.59E2,7E1,5.9E1,-1.3671385E-1,6.5E1,3E1,-3.2913715E-2,3.300354E-1,6.0939893E-2,-1.7023228E-1,9.63241E-2,-1.1972159E-1,1.2464807E-1,-8.1005946E-2,-1.508329E-2,3.108309E-1],"split_indices":[5,1,4,7,0,2,1,4,5,0,0,0,0,7,5,0,2,0,6,5,1,2,0,0,0,0,0,4,2,7,0,2,5,0,0,0,0,0,0,0,0,0,0],"split_type":[0,0,0,0,0,0,0,0,0,0,0,0,0,0,0,0,0,0,0,0,0,0,0,0,0,0,0,0,0,0,0,0,0,0,0,0,0,0,0,0,0,0,0],"sum_hessian":[8.500124E1,1.5164475E1,6.983677E1,1.1920125E1,3.2443504E0,5.1360083E0,6.470076E1,6.6751556E0,5.244969E0,2.0253544E0,1.2189962E0,3.765572E0,1.3704361E0,5.547213E1,9.228635E0,1.07398E0,5.601176E0,2.6981192E0,2.54685E0,2.5174162E1,3.0297966E1,8.198574E0,1.030061E0,1.1875176E0,4.413658E0,1.2764232E0,1.2704268E0,9.499105E0,1.5675056E1,2.8383532E1,1.9144354E0,2.2284281E0,5.9701457E0,8.001336E0,1.4977692E0,5.3665957E0,1.0308461E1,2.6423157E1,1.9603735E0,1.1794103E0,1.0490177E0,1.0510417E0,4.919104E0],"tree_param":{"num_deleted":"0","num_feature":"8","num_nodes":"43","size_leaf_vector":"1"}},{"base_weights":[-9.529355E-3,-2.857651E-1,7.74534E-2,-7.1702015E-1,-9.5100634E-2,-6.457869E-3,4.2279467E-1,-2.6092988E-1,-7.319694E-4,-5.426698E-1,8.47502E-2,-2.3599805E-1,8.630641E-2,5.795688E-1,-1.2760389E-1,-2.2578765E-1,-3.174872E-2,2.5457922E-1,-2.2015923E-1,-6.0150854E-2,-2.801831E-1,-2.5300983E-1,1.3906907E-1,1.9987786E-1,8.8964933E-1,-1.8463105E-1,4.3440157E-1,-4.9076504E-1,3.8514426E-1,5.8040303E-1,-4.8696835E-2,2.2925648E-1,-2.144797E-1,2.957061E-1,7.6303415E-2,6.1566543E-2,-1.8249266E-1,-2.3734277E-2,1.6669719E-1,5.5957414E-2,-1.9161816E-1,2.3358877E-1,-4.7626145E-2,-1.2791048E-1,2.1785748E-1,5.7273217E-2,-1.2243758E-1,4.0468268E-2,-1.7364098E-1],"categories":[],"categories_nodes":[],"categories_segments":[],"categories_sizes":[],"default_left":[0,0,0,0,0,0,0,0,0,0,0,0,0,0,0,0,0,0,0,0,0,0,0,0,0,0,0,0,0,0,0,0,0,0,0,0,0,0,0,0,0,0,0,0,0,0,0,0,0],"id":9,"left_children":[1,3,5,7,9,11,13,-1,-1,15,17,19,21,23,-1,-1,-1,25,-1,27,-1,-1,29,31,33,35,37,39,41,43,45,-1,47,-1,-1,-1,-1,-1,-1,-1,-1,-1,-1,-1,-1,-1,-1,-1,-1],"loss_changes":[2.001773E0,1.5716864E0,1.8412697E0,6.485522E-1,1.252012E0,1.128215E0,1.897644E0,0E0,0E0,3.2664025E-1,1.7929225E0,1.8145446E0,1.9707656E0,1.1059165E0,0E0,0E0,0E0,8.9449805E-1,0E0,2.7285073E0,0E0,0E0,3.0624664E0,1.6116163E0,9.7816944E-2,7.3543465E-1,5.18023E-1,8.3792424E-1,1.6369525E0,1.925014E0,2.3695545E0,0E0,6.318791E-1,0E0,0E0,0E0,0E0,0E0,0E0,0E0,0E0,0E0,0E0,0E0,0E0,0E0,0E0,0E0,0E0],"parents":[2147483647,0,0,1,1,2,2,3,3,4,4,5,5,6,6,9,9,10,10,11,11,12,12,13,13,17,17,19,19,22,22,23,23,24,24,25,25,26,26,27,27,28,28,29,29,30,30,32,32],"right_children":[2,4,6,8,10,12,14,-1,-1,16,18,20,22,24,-1,-1,-1,26,-1,28,-1,-1,30,32,34,36,38,40,42,44,46,-1,48,-1,-1,-1,-1,-1,-1,-1,-1,-1,-1,-1,-1,-1,-1,-1,-1],"split_conditions":[1.07E2,2.97E1,8E0,6.96E-1,8.8E1,3.02E1,5.4E1,-2.6092988E-1,-7.319694E-4,3.1E1,1.06E2,8.2E1,1.7E1,4.22E-1,-1.2760389E-1,-2.2578765E-1,-3.174872E-2,1.16E2,-2.2015923E-1,7E1,-2.801831E-1,-2.5300983E-1,3.31E1,3.05E1,1.144E0,2.9E1,2.7E1,1.4E1,7.4E1,2.3E1,1.32E2,2.2925648E-1,7.5E1,2.957061E-1,7.6303415E-2,6.1566543E-2,-1.8249266E-1,-2.3734277E-2,1.6669719E-1,5.5957414E-2,-1.9161816E-1,2.3358877E-1,-4.7626145E-2,-1.2791048E-1,2.1785748E-1,5.7273217E-2,-1.2243758E-1,4.0468268E-2,-1.7364098E-1],"split_indices":[1,5,0,6,1,5,7,0,0,3,1,2,3,6,0,0,0,4,0,2,0,0,5,5,6,7,7,3,2,7,4,0,2,0,0,0,0,0,0,0,0,0,0,0,0,0,0,0,0],"split_type":[0,0,0,0,0,0,0,0,0,0,0,0,0,0,0,0,0,0,0,0,0,0,0,0,0,0,0,0,0,0,0,0,0,0,0,0,0,0,0,0,0,0,0,0,0,0,0,0,0],"sum_hessian":[8.138973E1,1.894375E1,6.2445984E1,4.9613247E0,1.3982426E1,5.1028374E1,1.141761E1,3.9086542E0,1.0526705E0,3.429811E0,1.0552614E1,1.4242361E1,3.6786015E1,9.903638E0,1.5139726E0,1.8282359E0,1.6015751E0,9.310151E0,1.242464E0,1.2243737E1,1.9986236E0,1.170891E0,3.5615124E1,5.191406E0,4.712232E0,2.696731E0,6.6134195E0,6.1725645E0,6.071173E0,1.0005834E1,2.560929E1,1.8405298E0,3.3508759E0,3.6143413E0,1.0978906E0,1.6729561E0,1.023775E0,1.3297011E0,5.2837186E0,1.0599711E0,5.112593E0,3.2722678E0,2.7989054E0,1.0222082E0,8.983625E0,1.56471815E1,9.962109E0,2.0319986E0,1.3188773E0],"tree_param":{"num_deleted":"0","num_feature":"8","num_nodes":"49","size_leaf_vector":"1"}},{"base_weights":[-1.9118905E-2,-7.006774E-2,5.023902E-1,-4.9251488E-1,-1.7491521E-2,2.0311521E-1,2.4257731E-1,-2.4082081E-1,-1.5748402E-1,-2.3226593E-1,1.2481074E-2,-3.4320883E-2,1.6921976E-1,1.1586387E-1,-4.962418E-1,-2.8791774E-2,4.856116E-1,6.232736E-2,-1.0938951E-1,-1.9378568E-1,-2.5878036E-2,1.2673357E-1,-1.6430226E-1,7.3960495E-1,-1.3804997E-3,-1.735032E-1,7.373506E-2,-3.188386E-1,-2.6050894E-2,2.7072552E-1,6.700949E-2],"categories":[],"categories_nodes":[],"categories_segments":[],"categories_sizes":[],"default_left":[0,0,0,0,0,0,0,0,0,0,0,0,0,0,0,0,0,0,0,0,0,0,0,0,0,0,0,0,0,0,0],"id":10,"left_children":[1,3,5,7,9,11,-1,-1,13,-1,15,17,-1,-1,19,21,23,-1,-1,-1,-1,25,27,29,-1,-1,-1,-1,-1,-1,-1],"loss_changes":[2.1400368E0,1.6137611E0,4.9306393E-1,7.100276E-1,1.506548E0,4.446913E-1,0E0,0E0,1.1334281E0,0E0,1.2728515E0,3.9050508E-1,0E0,0E0,1.645093E-1,1.2903634E0,6.5439856E-1,0E0,0E0,0E0,0E0,2.5438528E0,2.1785605E0,8.842099E-2,0E0,0E0,0E0,0E0,0E0,0E0,0E0],"parents":[2147483647,0,0,1,1,2,2,3,3,4,4,5,5,8,8,10,10,11,11,14,14,15,15,16,16,21,21,22,22,23,23],"right_children":[2,4,6,8,10,12,-1,-1,14,-1,16,18,-1,-1,20,22,24,-1,-1,-1,-1,26,28,30,-1,-1,-1,-1,-1,-1,-1],"split_conditions":[1.67E2,2.68E1,5E0,3E0,1.27E-1,3.3E1,2.4257731E-1,-2.4082081E-1,5E0,-2.3226593E-1,4.55E1,7.5E1,1.6921976E-1,1.1586387E-1,1.35E2,3.31E1,1.32E2,6.232736E-2,-1.0938951E-1,-1.9378568E-1,-2.5878036E-2,6.1E1,3.33E1,2.9E1,-1.3804997E-3,-1.735032E-1,7.373506E-2,-3.188386E-1,-2.6050894E-2,2.7072552E-1,6.700949E-2],"split_indices":[1,5,0,0,6,3,0,0,0,0,5,2,0,0,1,5,4,0,0,0,0,2,5,7,0,0,0,0,0,0,0],"split_type":[0,0,0,0,0,0,0,0,0,0,0,0,0,0,0,0,0,0,0,0,0,0,0,0,0,0,0,0,0,0,0],"sum_hessian":[7.821765E1,7.2044876E1,6.1727796E0,7.047881E0,6.4996994E1,3.9628766E0,2.209903E0,2.9345942E0,4.113287E0,1.5302912E0,6.34667E1,2.9362829E0,1.0265939E0,1.5252374E0,2.5880497E0,5.923828E1,4.2284184E0,1.9085584E0,1.0277244E0,1.4741719E0,1.1138777E0,2.7612358E1,3.1625925E1,2.4501731E0,1.7782453E0,3.431454E0,2.4180902E1,1.500681E0,3.0125244E1,1.2940059E0,1.1561673E0],"tree_param":{"num_deleted":"0","num_feature":"8","num_nodes":"31","size_leaf_vector":"1"}},{"base_weights":[-1.8999258E-2,-6.1575096E-2,4.4322506E-1,-3.3096638E-1,2.9067958E-3,1.7529066E-1,2.2181495E-1,-1.3422312E-1,-7.556408E-1,3.4924347E-2,-2.3355126E-1,-1.0713394E-1,1.2820199E-1,-3.811738E-1,3.6387977E-1,-3.895995E-2,-2.9668725E-1,-1.4282537E-2,6.032019E-1,-8.9196086E-2,4.2009898E-2,-5.900372E-1,6.8942346E-2,2.0276228E-1,-6.6230625E-2,-3.2043293E-1,7.078232E-2,-7.905757E-4,2.3246734E-1,-4.509421E-2,-2.7666605E-1,-2.2175767E-1,5.1539432E-2,3.300418E-2,-2.1552867E-1],"categories":[],"categories_nodes":[],"categories_segments":[],"categories_sizes":[],"default_left":[0,0,0,0,0,0,0,0,0,0,0,0,0,0,0,0,0,0,0,0,0,0,0,0,0,0,0,0,0,0,0,0,0,0,0],"id":11,"left_children":[1,3,5,7,9,11,-1,13,15,17,-1,19,-1,21,23,-1,-1,25,27,-1,-1,29,-1,-1,-1,31,33,-1,-1,-1,-1,-1,-1,-1,-1],"loss_changes":[1.549627E0,1.2466215E0,3.9778638E-1,1.0564544E0,1.4995867E0,3.8748372E-1,0E0,1.4532316E0,4.8063135E-1,1.6162765E0,0E0,1.8563096E-1,0E0,1.1096442E0,8.8864124E-1,0E0,0E0,1.4260529E0,4.8099637E-1,0E0,0E0,7.332103E-1,0E0,0E0,0E0,2.5795002E0,1.4100753E0,0E0,0E0,0E0,0E0,0E0,0E0,0E0,0E0],"parents":[2147483647,0,0,1,1,2,2,3,3,4,4,5,5,7,7,8,8,9,9,11,11,13,13,14,14,17,17,18,18,21,21,25,25,26,26],"right_children":[2,4,6,8,10,12,-1,14,16,18,-1,20,-1,22,24,-1,-1,26,28,-1,-1,30,-1,-1,-1,32,34,-1,-1,-1,-1,-1,-1,-1,-1],"split_conditions":[1.67E2,2.2E-1,5E0,4.4E1,1.64E2,3.41E1,2.2181495E-1,3.1E1,1.79E-1,1.55E2,-2.3355126E-1,3.28E-1,1.2820199E-1,1.92E-1,3.22E1,-3.895995E-2,-2.9668725E-1,1.25E2,6.5E1,-8.9196086E-2,4.2009898E-2,1.51E-1,6.8942346E-2,2.0276228E-1,-6.6230625E-2,5.28E-1,1.53E2,-7.905757E-4,2.3246734E-1,-4.509421E-2,-2.7666605E-1,-2.2175767E-1,5.1539432E-2,3.300418E-2,-2.1552867E-1],"split_indices":[1,6,0,7,1,5,0,7,6,1,0,6,0,6,5,0,0,4,2,0,0,6,0,0,0,6,1,0,0,0,0,0,0,0,0],"split_type":[0,0,0,0,0,0,0,0,0,0,0,0,0,0,0,0,0,0,0,0,0,0,0,0,0,0,0,0,0,0,0,0,0,0,0],"sum_hessian":[7.635606E1,7.070972E1,5.646341E0,1.2858211E1,5.7851505E1,3.800189E0,1.8461517E0,9.686642E0,3.1715689E0,5.6492104E1,1.3594025E0,2.0632446E0,1.7369444E0,6.63291E0,3.0537314E0,1.284105E0,1.8874639E0,5.288747E1,3.6046338E0,1.0513525E0,1.011892E0,4.9686584E0,1.6642511E0,1.8894186E0,1.164313E0,1.0898085E1,4.1989384E1,1.0133811E0,2.5912526E0,2.76329E0,2.2053688E0,5.617419E0,5.280666E0,4.082079E1,1.1685942E0],"tree_param":{"num_deleted":"0","num_feature":"8","num_nodes":"35","size_leaf_vector":"1"}},{"base_weights":[-2.158162E-2,-1.2321955E-1,1.4255881E-1,-6.1235076E-1,-5.316711E-2,-5.1873233E-2,3.8976768E-1,-2.2400382E-1,-1.5417766E-2,-1.0974355E-1,5.5024385E-1,1.326859E-1,-5.4133064E-1,5.8255285E-1,-1.5175952E-1,-5.9496686E-2,-2.1821538E-1,1.2315047E-3,2.4130173E-1,-4.8146695E-2,4.2340344E-1,-3.2674366E-1,-4.997466E-2,6.8976754E-1,-5.25475E-2,5.9874307E-2,-1.22852884E-1,-5.899932E-1,-8.4728096E-4,2.2970252E-1,-4.7452265E-1,-2.4277642E-1,2.7993613E-1,9.672232E-2,-1.2421829E-1,2.4712452E-1,8.634544E-1,-2.1522613E-1,-3.7154425E-2,-1.9907524E-1,1.2457175E-2,1.9405489E-1,-6.970391E-2,2.410658E-2,-2.2300316E-1,3.2326885E-2,-1.4421685E-1,2.011244E-1,-1.06602974E-1,2.8373453E-1,7.051101E-2],"categories":[],"categories_nodes":[],"categories_segments":[],"categories_sizes":[],"default_left":[0,0,0,0,0,0,0,0,0,0,0,0,0,0,0,0,0,0,0,0,0,0,0,0,0,0,0,0,0,0,0,0,0,0,0,0,0,0,0,0,0,0,0,0,0,0,0,0,0,0,0],"id":12,"left_children":[1,3,5,7,9,11,13,-1,-1,15,17,19,21,23,25,27,-1,-1,-1,29,31,-1,33,35,-1,-1,-1,37,39,41,43,45,-1,-1,-1,47,49,-1,-1,-1,-1,-1,-1,-1,-1,-1,-1,-1,-1,-1,-1],"loss_changes":[1.276709E0,1.5829811E0,1.4298065E0,3.995402E-1,1.5057242E0,1.6344289E0,1.4485548E0,0E0,0E0,1.1838746E0,5.234132E-1,7.229819E-1,1.2735087E0,9.18138E-1,4.6332324E-1,1.1710956E0,0E0,0E0,0E0,1.1914915E0,2.001523E0,0E0,6.282006E-1,4.6321535E-1,0E0,0E0,0E0,1.3373029E-1,1.0078208E0,1.3464717E0,6.461366E-1,3.0697954E-1,0E0,0E0,0E0,1.2279615E0,8.395815E-2,0E0,0E0,0E0,0E0,0E0,0E0,0E0,0E0,0E0,0E0,0E0,0E0,0E0,0E0],"parents":[2147483647,0,0,1,1,2,2,3,3,4,4,5,5,6,6,9,9,10,10,11,11,12,12,13,13,14,14,15,15,19,19,20,20,22,22,23,23,27,27,28,28,29,29,30,30,31,31,35,35,36,36],"right_children":[2,4,6,8,10,12,14,-1,-1,16,18,20,22,24,26,28,-1,-1,-1,30,32,-1,34,36,-1,-1,-1,38,40,42,44,46,-1,-1,-1,48,50,-1,-1,-1,-1,-1,-1,-1,-1,-1,-1,-1,-1,-1,-1],"split_conditions":[1.34E2,2.3E1,3.41E1,3.3E1,1.057E0,3.19E1,2.55E2,-2.2400382E-1,-1.5417766E-2,5.3E1,3E0,3E1,1.43E2,1.057E0,3.94E1,8.8E1,-2.1821538E-1,1.2315047E-3,2.4130173E-1,4.03E-1,3.4E-1,-3.2674366E-1,1.56E2,2.9E1,-5.25475E-2,5.9874307E-2,-1.22852884E-1,8E0,1.27E-1,1.5E2,2.69E1,2.8E1,2.7993613E-1,9.672232E-2,-1.2421829E-1,2.6E1,4.45E1,-2.1522613E-1,-3.7154425E-2,-1.9907524E-1,1.2457175E-2,1.9405489E-1,-6.970391E-2,2.410658E-2,-2.2300316E-1,3.2326885E-2,-1.4421685E-1,2.011244E-1,-1.06602974E-1,2.8373453E-1,7.051101E-2],"split_indices":[1,7,5,3,6,5,4,0,0,7,0,5,1,6,5,1,0,0,0,6,6,0,1,7,0,0,0,0,6,1,5,3,0,0,0,7,5,0,0,0,0,0,0,0,0,0,0,0,0,0,0],"split_type":[0,0,0,0,0,0,0,0,0,0,0,0,0,0,0,0,0,0,0,0,0,0,0,0,0,0,0,0,0,0,0,0,0,0,0,0,0,0,0,0,0,0,0,0,0,0,0,0,0,0,0],"sum_hessian":[7.447508E1,4.614858E1,2.8326506E1,4.811518E0,4.1337063E1,1.629808E1,1.2028426E1,3.6148238E0,1.1966943E0,3.8541496E1,2.7955632E0,1.2364663E1,3.9334168E0,8.814633E0,3.2137928E0,3.6655773E1,1.8857232E0,1.2103202E0,1.585243E0,8.137407E0,4.2272563E0,1.2845994E0,2.6488173E0,7.8005414E0,1.014092E0,1.4554886E0,1.7583044E0,2.74719E0,3.3908585E1,5.206102E0,2.931305E0,2.0594022E0,2.167854E0,1.3660821E0,1.2827353E0,2.8810272E0,4.919514E0,1.7341E0,1.01309E0,1.1566092E0,3.2751976E1,2.5258E0,2.6803021E0,1.1854604E0,1.7458444E0,1.0539329E0,1.0054694E0,1.6258993E0,1.2551278E0,3.9031513E0,1.0163629E0],"tree_param":{"num_deleted":"0","num_feature":"8","num_nodes":"51","size_leaf_vector":"1"}},{"base_weights":[-2.355814E-2,-5.9150524E-2,3.8667813E-1,-1.0045056E-1,3.0584002E-1,1.5556408E-1,1.9717552E-1,-5.7229392E-2,-4.4980294E-1,4.775001E-1,-9.7181164E-2,3.0486578E-1,-4.947063E-2,-1.9274665E-1,1.7230748E-1,-8.048343E-1,2.379468E-2,5.028548E-3,2.387903E-1,1.3559149E-1,1.4848096E-2,5.257997E-3,-4.3951416E-1,7.3823136E-1,9.802965E-3,-4.3573394E-2,-3.058435E-1,1.5437245E-1,-1.1374552E-1,-1.1994419E-1,1.1062098E-1,-2.6285177E-2,2.6375747E-1,-1.866711E-1,2.788955E-2,-1.5932884E-2,3.0773053E-1,-1.5552765E-1,5.6537796E-2],"categories":[],"categories_nodes":[],"categories_segments":[],"categories_sizes":[],"default_left":[0,0,0,0,0,0,0,0,0,0,0,0,0,0,0,0,0,0,0,0,0,0,0,0,0,0,0,0,0,0,0,0,0,0,0,0,0,0,0],"id":13,"left_children":[1,3,5,7,9,11,-1,13,15,17,-1,19,-1,21,23,25,27,29,-1,-1,-1,31,33,35,37,-1,-1,-1,-1,-1,-1,-1,-1,-1,-1,-1,-1,-1,-1],"loss_changes":[1.0927368E0,1.0601285E0,2.718475E-1,9.11942E-1,9.318639E-1,2.6732638E-1,0E0,1.7878929E0,1.1442425E0,9.068284E-1,0E0,1.07075095E-1,0E0,1.7584177E0,1.9671235E0,3.974359E-1,9.541413E-1,6.54494E-1,0E0,0E0,0E0,1.7757533E0,1.6157541E0,1.1411963E0,1.7673784E0,0E0,0E0,0E0,0E0,0E0,0E0,0E0,0E0,0E0,0E0,0E0,0E0,0E0,0E0],"parents":[2147483647,0,0,1,1,2,2,3,3,4,4,5,5,7,7,8,8,9,9,11,11,13,13,14,14,15,15,16,16,17,17,21,21,22,22,23,23,24,24],"right_children":[2,4,6,8,10,12,-1,14,16,18,-1,20,-1,22,24,26,28,30,-1,-1,-1,32,34,36,38,-1,-1,-1,-1,-1,-1,-1,-1,-1,-1,-1,-1,-1,-1],"split_conditions":[1.67E2,4.31E1,5E0,3.94E1,8.16E-1,1.86E2,1.9717552E-1,5.01E-1,4.09E1,8.2E1,-9.7181164E-2,3.4E1,-4.947063E-2,2.8E-1,5.57E-1,7.5E1,3.75E-1,2.62E-1,2.387903E-1,1.3559149E-1,1.4848096E-2,2.68E-1,4.2E1,2.8E1,6.6E-1,-4.3573394E-2,-3.058435E-1,1.5437245E-1,-1.1374552E-1,-1.1994419E-1,1.1062098E-1,-2.6285177E-2,2.6375747E-1,-1.866711E-1,2.788955E-2,-1.5932884E-2,3.0773053E-1,-1.5552765E-1,5.6537796E-2],"split_indices":[1,5,0,5,6,1,0,6,5,2,0,5,0,6,6,2,6,6,0,0,0,6,7,3,6,0,0,0,0,0,0,0,0,0,0,0,0,0,0],"split_type":[0,0,0,0,0,0,0,0,0,0,0,0,0,0,0,0,0,0,0,0,0,0,0,0,0,0,0,0,0,0,0,0,0,0,0,0,0,0,0],"sum_hessian":[7.2271935E1,6.728965E1,4.982283E0,6.110067E1,6.188983E0,3.536487E0,1.4457961E0,5.540935E1,5.691318E0,5.0533676E0,1.1356153E0,2.445729E0,1.0907581E0,3.494079E1,2.0468563E1,2.8530958E0,2.838222E0,2.4437149E0,2.609653E0,1.0633415E0,1.3823876E0,1.9928766E1,1.5012021E1,3.775947E0,1.6692617E1,1.1121612E0,1.7409347E0,1.1547412E0,1.6834809E0,1.1094818E0,1.3342329E0,1.8827646E1,1.1011206E0,1.1051188E1,3.9608328E0,1.2236341E0,2.5523129E0,3.7381945E0,1.2954422E1],"tree_param":{"num_deleted":"0","num_feature":"8","num_nodes":"39","size_leaf_vector":"1"}},{"base_weights":[-1.163846E-2,1.4540517E-2,-5.4681796E-1,-9.243306E-2,1.691628E-1,-2.1551456E-1,-4.5071002E-2,-5.6232524E-1,-3.41143E-2,4.0947664E-1,-3.738926E-2,-2.0378534E-1,-6.884012E-2,-7.4915774E-2,1.6655472E-1,-1.1675351E-2,8.884057E-1,-2.5793108E-1,2.7427778E-1,2.2010066E-1,-1.7281716E-1,4.9740624E-1,-4.038178E-1,4.1201513E-2,3.0224603E-1,-4.5230362E-1,1.1946616E-1,-1.3819826E-1,5.125579E-1,-1.3597561E-1,1.9913812E-1,2.3698239E-2,-9.830335E-2,2.4528225E-1,-6.301968E-2,9.845045E-2,-2.02995E-1,1.8685743E-3,-2.4424447E-1,1.9122256E-2,2.064278E-1],"categories":[],"categories_nodes":[],"categories_segments":[],"categories_sizes":[],"default_left":[0,0,0,0,0,0,0,0,0,0,0,0,0,0,0,0,0,0,0,0,0,0,0,0,0,0,0,0,0,0,0,0,0,0,0,0,0,0,0,0,0],"id":14,"left_children":[1,3,5,7,9,-1,-1,11,13,15,17,-1,-1,19,-1,21,23,25,27,29,31,33,35,-1,-1,37,-1,-1,39,-1,-1,-1,-1,-1,-1,-1,-1,-1,-1,-1,-1],"loss_changes":[1.0111505E0,1.1608756E0,1.2103355E-1,1.1200273E0,1.4382542E0,0E0,0E0,2.0299077E-2,9.563865E-1,2.6998985E0,1.1933806E0,0E0,0E0,1.091205E0,0E0,1.8143063E0,4.208064E-1,1.4656899E0,1.506223E0,3.1466765E0,1.115365E0,1.069903E0,1.2440292E0,0E0,0E0,1.3729848E0,0E0,0E0,4.2492497E-1,0E0,0E0,0E0,0E0,0E0,0E0,0E0,0E0,0E0,0E0,0E0,0E0],"parents":[2147483647,0,0,1,1,2,2,3,3,4,4,7,7,8,8,9,9,10,10,13,13,15,15,16,16,17,17,18,18,19,19,20,20,21,21,22,22,25,25,28,28],"right_children":[2,4,6,8,10,-1,-1,12,14,16,18,-1,-1,20,-1,22,24,26,28,30,32,34,36,-1,-1,38,-1,-1,40,-1,-1,-1,-1,-1,-1,-1,-1,-1,-1,-1,-1],"split_conditions":[6.3E1,1.3E2,2.99E1,2.3E1,7.4E1,-2.1551456E-1,-4.5071002E-2,1.12E2,1.182E0,7E1,4E1,-2.0378534E-1,-6.884012E-2,6.8E1,1.6655472E-1,3E0,2.15E-1,6.99E-1,2E0,6.1E1,3.27E1,5.36E-1,6.1E1,4.1201513E-2,3.0224603E-1,3.75E-1,1.1946616E-1,-1.3819826E-1,2.12E-1,-1.3597561E-1,1.9913812E-1,2.3698239E-2,-9.830335E-2,2.4528225E-1,-6.301968E-2,9.845045E-2,-2.02995E-1,1.8685743E-3,-2.4424447E-1,1.9122256E-2,2.064278E-1],"split_indices":[7,1,5,7,2,0,0,1,6,2,7,0,0,2,0,0,6,6,0,2,5,6,2,0,0,6,0,0,6,0,0,0,0,0,0,0,0,0,0,0,0],"split_type":[0,0,0,0,0,0,0,0,0,0,0,0,0,0,0,0,0,0,0,0,0,0,0,0,0,0,0,0,0,0,0,0,0,0,0,0,0,0,0,0,0],"sum_hessian":[7.0603645E1,6.82385E1,2.3651414E0,4.0571674E1,2.7666828E1,1.0845299E0,1.2806115E0,3.5252643E0,3.704641E1,1.2334161E1,1.5332667E1,1.8384947E0,1.6867697E0,3.5463852E1,1.5825588E0,7.082075E0,5.252085E0,9.079937E0,6.2527304E0,8.525347E0,2.6938505E1,2.9647663E0,4.117309E0,1.0134398E0,4.2386456E0,7.2445483E0,1.8353885E0,1.3024008E0,4.9503293E0,3.3777294E0,5.147618E0,1.0444736E1,1.6493769E1,1.9338377E0,1.0309285E0,1.0628774E0,3.0544317E0,3.6288407E0,3.6157079E0,1.7750094E0,3.17532E0],"tree_param":{"num_deleted":"0","num_feature":"8","num_nodes":"41","size_leaf_vector":"1"}},{"base_weights":[-7.836768E-3,-3.3707944E-1,4.028107E-2,-4.9006864E-1,5.241628E-2,-1.8046035E-1,6.25555E-2,-2.2766879E-1,-2.1548624E-1,2.3891823E-3,3.1882256E-1,7.922738E-2,-4.7472993E-1,1.14237E-1,-2.1420608E-1,-5.6280317E-3,6.863411E-1,-1.6301643E-4,-2.0725404E-1,4.9720123E-1,2.4577694E-2,-3.2829362E-1,3.9374924E-1,-3.211375E-1,1.9435838E-1,2.4081679E-2,2.43744E-1,2.536983E-1,1.4503952E-2,-5.073228E-2,1.0135872E-1,-8.107895E-3,-1.3450974E-1,2.0628588E-1,-2.5739212E-2,4.692923E-2,-1.6681792E-1],"categories":[],"categories_nodes":[],"categories_segments":[],"categories_sizes":[],"default_left":[0,0,0,0,0,0,0,0,0,0,0,0,0,0,0,0,0,0,0,0,0,0,0,0,0,0,0,0,0,0,0,0,0,0,0,0,0],"id":15,"left_children":[1,3,5,7,-1,-1,9,-1,11,13,15,-1,17,19,21,23,25,-1,-1,27,29,31,33,35,-1,-1,-1,-1,-1,-1,-1,-1,-1,-1,-1,-1,-1],"loss_changes":[1.1160305E0,7.887653E-1,9.183881E-1,3.6618936E-1,0E0,0E0,9.312617E-1,0E0,7.4038213E-1,1.2348323E0,1.3734642E0,0E0,3.65314E-1,1.1414826E0,1.3334823E0,1.6703522E0,3.4711933E-1,0E0,0E0,9.479437E-1,1.7730032E0,5.364164E-1,5.096659E-1,6.986068E-1,0E0,0E0,0E0,0E0,0E0,0E0,0E0,0E0,0E0,0E0,0E0,0E0,0E0],"parents":[2147483647,0,0,1,1,2,2,3,3,6,6,8,8,9,9,10,10,12,12,13,13,14,14,15,15,16,16,19,19,20,20,21,21,22,22,23,23],"right_children":[2,4,6,8,-1,-1,10,-1,12,14,16,-1,18,20,22,24,26,-1,-1,28,30,32,34,36,-1,-1,-1,-1,-1,-1,-1,-1,-1,-1,-1,-1,-1],"split_conditions":[2.74E1,1.52E2,1.27E-1,2.59E-1,5.241628E-2,-1.8046035E-1,8E0,-2.2766879E-1,4.03E-1,5.57E-1,4.22E-1,7.922738E-2,6.4E1,1E0,1.182E0,3.1E1,1.03E2,-1.6301643E-4,-2.0725404E-1,3E1,3.42E-1,7E1,1.391E0,3.12E1,1.9435838E-1,2.4081679E-2,2.43744E-1,2.536983E-1,1.4503952E-2,-5.073228E-2,1.0135872E-1,-8.107895E-3,-1.3450974E-1,2.0628588E-1,-2.5739212E-2,4.692923E-2,-1.6681792E-1],"split_indices":[5,1,6,6,0,0,0,0,6,6,6,0,2,0,6,3,1,0,0,3,6,2,6,5,0,0,0,0,0,0,0,0,0,0,0,0,0],"split_type":[0,0,0,0,0,0,0,0,0,0,0,0,0,0,0,0,0,0,0,0,0,0,0,0,0,0,0,0,0,0,0,0,0,0,0,0,0],"sum_hessian":[6.858853E1,7.980088E0,6.060844E1,6.1763062E0,1.803782E0,1.1606236E0,5.944782E1,2.2296093E0,3.9466968E0,4.8961884E1,1.0485935E1,1.3782883E0,2.5684085E0,3.260008E1,1.6361805E1,6.0922747E0,4.3936605E0,1.1179671E0,1.4504414E0,5.3221183E0,2.727796E1,1.4163851E1,2.197953E0,4.451593E0,1.6406816E0,1.0388067E0,3.3548536E0,2.498452E0,2.8236663E0,1.7140944E1,1.0137015E1,4.385496E0,9.778356E0,1.0937798E0,1.1041731E0,1.5779436E0,2.8736494E0],"tree_param":{"num_deleted":"0","num_feature":"8","num_nodes":"37","size_leaf_vector":"1"}},{"base_weights":[-2.7978653E-3,3.1300563E-2,-3.953352E-1,-4.7568095E-1,6.033796E-2,7.3218174E-2,-7.112462E-1,-1.9409575E-1,-7.5113573E-3,-2.0595919E-1,1.201305E-1,-6.913844E-2,-2.5769165E-1,-4.068854E-1,4.3396983E-1,3.0937215E-2,3.7811166E-1,-7.7328026E-1,-8.195299E-3,1.9958042E-1,-7.168221E-3,1.720405E-1,-1.8296607E-1,-1.8872254E-1,5.372112E-1,-4.9605608E-2,-2.7214402E-1,-1.7155632E-1,7.679783E-2,1.0499783E-1,-3.7749894E-2,-9.5202155E-2,8.3289765E-2,8.980333E-2,-2.1040727E-1,2.6534694E-1,3.877649E-2],"categories":[],"categories_nodes":[],"categories_segments":[],"categories_sizes":[],"default_left":[0,0,0,0,0,0,0,0,0,0,0,0,0,0,0,0,0,0,0,0,0,0,0,0,0,0,0,0,0,0,0,0,0,0,0,0,0],"id":16,"left_children":[1,3,5,7,9,-1,11,-1,-1,13,15,-1,-1,17,19,21,23,25,27,-1,-1,29,31,33,35,-1,-1,-1,-1,-1,-1,-1,-1,-1,-1,-1,-1],"loss_changes":[9.239308E-1,9.647909E-1,1.2878679E0,2.5840855E-1,9.9649155E-1,0E0,8.2422614E-2,0E0,0E0,1.6628063E0,1.1496431E0,0E0,0E0,1.3540839E0,3.5965252E-1,1.1963183E0,1.2627091E0,2.4407625E-1,9.61035E-1,0E0,0E0,1.303977E0,1.0675037E0,1.1012388E0,1.3470628E0,0E0,0E0,0E0,0E0,0E0,0E0,0E0,0E0,0E0,0E0,0E0,0E0],"parents":[2147483647,0,0,1,1,2,2,3,3,4,4,6,6,9,9,10,10,13,13,14,14,15,15,16,16,17,17,18,18,21,21,22,22,23,23,24,24],"right_children":[2,4,6,8,10,-1,12,-1,-1,14,16,-1,-1,18,20,22,24,26,28,-1,-1,30,32,34,36,-1,-1,-1,-1,-1,-1,-1,-1,-1,-1,-1,-1],"split_conditions":[5.7E1,2.48E1,5E0,4.52E-1,1.25E2,7.3218174E-2,6.1E1,-1.9409575E-1,-7.5113573E-3,8.4E1,4.2E1,-6.913844E-2,-2.5769165E-1,4.83E-1,9.2E1,7.5E1,2.12E-1,2.18E-1,2.5E1,1.9958042E-1,-7.168221E-3,1.26E2,4.29E1,1.79E-1,3.8E-1,-4.9605608E-2,-2.7214402E-1,-1.7155632E-1,7.679783E-2,1.0499783E-1,-3.7749894E-2,-9.5202155E-2,8.3289765E-2,8.980333E-2,-2.1040727E-1,2.6534694E-1,3.877649E-2],"split_indices":[7,5,0,6,4,0,7,0,0,2,7,0,0,6,4,2,6,6,7,0,0,4,5,6,6,0,0,0,0,0,0,0,0,0,0,0,0],"split_type":[0,0,0,0,0,0,0,0,0,0,0,0,0,0,0,0,0,0,0,0,0,0,0,0,0,0,0,0,0,0,0,0,0,0,0,0,0],"sum_hessian":[6.7103325E1,6.258687E1,4.516455E0,2.557216E0,6.002965E1,1.5687611E0,2.9476938E0,1.5371851E0,1.020031E0,1.0558932E1,4.9470722E1,1.2945497E0,1.6531441E0,8.312978E0,2.2459543E0,3.75933E1,1.1877423E1,3.8423336E0,4.470644E0,1.1912107E0,1.0547435E0,2.2769135E1,1.4824163E1,2.5623126E0,9.31511E0,1.0967698E0,2.7455637E0,1.055055E0,3.4155889E0,1.4144259E1,8.624875E0,1.1716913E1,3.1072507E0,1.5257508E0,1.036562E0,4.4007816E0,4.914329E0],"tree_param":{"num_deleted":"0","num_feature":"8","num_nodes":"37","size_leaf_vector":"1"}},{"base_weights":[-1.0126062E-2,-3.6242542E-1,2.7901094E-2,-6.7683E-1,1.8581711E-1,2.0042951E-1,2.71417E-3,-5.65384E-2,-2.341248E-1,-5.46836E-2,1.3856505E-1,-5.192078E-1,3.8459074E-2,-2.4442652E-2,-2.197044E-1,8.281511E-2,-3.3492061E-1,-3.4886338E-2,2.429258E-1,4.5245193E-2,-5.825533E-1,-2.929612E-2,1.7405E-1,9.1278724E-2,-1.3714486E-1,-2.4848442E-1,-4.4755086E-2],"categories":[],"categories_nodes":[],"categories_segments":[],"categories_sizes":[],"default_left":[0,0,0,0,0,0,0,0,0,0,0,0,0,0,0,0,0,0,0,0,0,0,0,0,0,0,0],"id":17,"left_children":[1,3,5,7,9,-1,11,-1,-1,-1,-1,13,15,-1,-1,17,19,21,23,-1,25,-1,-1,-1,-1,-1,-1],"loss_changes":[9.02076E-1,1.2561579E0,9.821375E-1,7.4659824E-2,4.0680435E-1,0E0,1.1340317E0,0E0,0E0,0E0,0E0,3.03877E-1,9.687582E-1,0E0,0E0,9.8066235E-1,8.3740556E-1,1.2382059E0,1.0830046E0,0E0,3.3785558E-1,0E0,0E0,0E0,0E0,0E0,0E0],"parents":[2147483647,0,0,1,1,2,2,3,3,4,4,6,6,11,11,12,12,15,15,16,16,17,17,18,18,20,20],"right_children":[2,4,6,8,10,-1,12,-1,-1,-1,-1,14,16,-1,-1,18,20,22,24,-1,26,-1,-1,-1,-1,-1,-1],"split_conditions":[9.3E1,3.1E1,9.6E1,2.4E1,4.63E-1,2.0042951E-1,1.01E2,-5.65384E-2,-2.341248E-1,-5.46836E-2,1.3856505E-1,2.8E1,5.4E1,-2.4442652E-2,-2.197044E-1,3.5E1,5E0,7E0,1.159E0,4.5245193E-2,1.4E2,-2.929612E-2,1.7405E-1,9.1278724E-2,-1.3714486E-1,-2.4848442E-1,-4.4755086E-2],"split_indices":[1,3,1,3,6,0,1,0,0,0,0,3,7,0,0,7,0,0,6,0,1,0,0,0,0,0,0],"split_type":[0,0,0,0,0,0,0,0,0,0,0,0,0,0,0,0,0,0,0,0,0,0,0,0,0,0,0],"sum_hessian":[6.557966E1,5.557936E0,6.0021725E1,3.383202E0,2.1747339E0,1.305789E0,5.8715935E1,1.0853865E0,2.2978156E0,1.0776147E0,1.0971193E0,2.8965907E0,5.5819344E1,1.4011894E0,1.4954011E0,5.0587902E1,5.231442E0,2.9605934E1,2.0981966E1,1.8984828E0,3.3329594E0,2.7627699E1,1.9782352E0,1.9811575E1,1.1703914E0,1.5454211E0,1.7875383E0],"tree_param":{"num_deleted":"0","num_feature":"8","num_nodes":"27","size_leaf_vector":"1"}},{"base_weights":[-1.4540067E-2,-4.7410958E-2,3.6528638E-1,-1.8978222E-1,-2.5078071E-2,1.8530694E-1,1.4703582E-1,-5.898155E-2,4.1049072E-1,-3.6731493E-2,9.050666E-2,-4.1850924E-1,-3.0291675E-2,1.7625187E-1,-2.6160134E-3,2.5758533E-2,-1.8649387E-1,1.600184E-1,-5.3865824E-2,-1.1877716E-1,-2.6875166E-3],"categories":[],"categories_nodes":[],"categories_segments":[],"categories_sizes":[],"default_left":[0,0,0,0,0,0,0,0,0,0,0,0,0,0,0,0,0,0,0,0,0],"id":18,"left_children":[1,3,5,-1,7,-1,9,11,13,-1,-1,15,17,-1,-1,-1,-1,-1,19,-1,-1],"loss_changes":[8.3068275E-1,7.792923E-1,2.0134306E-1,0E0,9.0503776E-1,0E0,2.1016812E-1,5.671588E-1,3.3409053E-1,0E0,0E0,4.7101575E-1,7.3484814E-1,0E0,0E0,0E0,0E0,0E0,7.938846E-1,0E0,0E0],"parents":[2147483647,0,0,1,1,2,2,4,4,6,6,7,7,8,8,11,11,12,12,18,18],"right_children":[2,4,6,-1,8,-1,10,12,14,-1,-1,16,18,-1,-1,-1,-1,-1,20,-1,-1],"split_conditions":[1.67E2,1.27E-1,2.69E-1,-1.8978222E-1,4.55E1,1.8530694E-1,3.1E1,9E1,5.57E-1,-3.6731493E-2,9.050666E-2,2.98E1,5.9E1,1.7625187E-1,-2.6160134E-3,2.5758533E-2,-1.8649387E-1,1.600184E-1,2.74E1,-1.1877716E-1,-2.6875166E-3],"split_indices":[1,6,6,0,5,0,5,1,6,0,0,5,4,0,0,0,0,0,5,0,0],"split_type":[0,0,0,0,0,0,0,0,0,0,0,0,0,0,0,0,0,0,0,0,0],"sum_hessian":[6.414609E1,5.9842392E1,4.303695E0,1.1952988E0,5.8647095E1,1.1470097E0,3.1566856E0,5.5213978E1,3.433117E0,1.2270039E0,1.9296818E0,3.0762718E0,5.2137707E1,2.1315804E0,1.3015367E0,1.0490055E0,2.0272663E0,1.2248085E0,5.09129E1,5.001354E0,4.5911545E1],"tree_param":{"num_deleted":"0","num_feature":"8","num_nodes":"21","size_leaf_vector":"1"}},{"base_weights":[-9.216404E-3,-1.669666E-1,8.848213E-3,2.132874E-1,-1.4450723E-2,-3.8845606E-2,3.6122024E-1,-4.685854E-1,-9.034513E-3,2.2197706E-1,-9.418278E-2,-2.0121904E-1,-4.7711135E-5,-3.6547717E-1,2.2652788E-2,-2.263031E-1,6.378456E-2,7.697447E-2,-8.843354E-3],"categories":[],"categories_nodes":[],"categories_segments":[],"categories_sizes":[],"default_left":[0,0,0,0,0,0,0,0,0,0,0,0,0,0,0,0,0,0,0],"id":19,"left_children":[1,-1,3,-1,5,7,9,11,13,-1,-1,-1,-1,15,17,-1,-1,-1,-1],"loss_changes":[6.38915E-1,0E0,1.0417749E0,0E0,5.8232963E-1,7.533172E-1,1.2239375E0,3.612572E-1,6.4435714E-1,0E0,0E0,0E0,0E0,1.2070785E0,6.497492E-1,0E0,0E0,0E0,0E0],"parents":[2147483647,0,0,2,2,4,4,5,5,6,6,7,7,8,8,13,13,14,14],"right_children":[2,-1,4,-1,6,8,10,12,14,-1,-1,-1,-1,16,18,-1,-1,-1,-1],"split_conditions":[1.27E-1,-1.669666E-1,1.34E-1,2.132874E-1,1.182E0,9E1,1.4E0,3.1E1,6E1,2.2197706E-1,-9.418278E-2,-2.0121904E-1,-4.7711135E-5,1.35E2,6.8E1,-2.263031E-1,6.378456E-2,7.697447E-2,-8.843354E-3],"split_indices":[6,0,6,0,6,1,6,3,2,0,0,0,0,1,2,0,0,0,0],"split_type":[0,0,0,0,0,0,0,0,0,0,0,0,0,0,0,0,0,0,0],"sum_hessian":[6.3120613E1,1.0643E0,6.2056316E1,1.0451862E0,6.1011127E1,5.8132767E1,2.878361E0,2.8162866E0,5.5316483E1,1.782581E0,1.09578E0,1.6656237E0,1.1506628E0,3.656095E0,5.1660385E1,2.0035076E0,1.6525874E0,8.699723E0,4.2960663E1],"tree_param":{"num_deleted":"0","num_feature":"8","num_nodes":"19","size_leaf_vector":"1"}},{"base_weights":[-9.09877E-3,-3.71189E-1,1.5634695E-2,1.7408913E-2,-1.9377917E-1,-9.06274E-3,1.6011214E-1,2.5163248E-2,-3.36831E-1,-1.7081633E-1,4.919611E-2,3.9925057E-2,-5.6706595E-1,1.5062517E-1,2.0914627E-2,-3.3672597E-2,-2.3748069E-1,-9.031763E-4,1.6631524E-1],"categories":[],"categories_nodes":[],"categories_segments":[],"categories_sizes":[],"default_left":[0,0,0,0,0,0,0,0,0,0,0,0,0,0,0,0,0,0,0],"id":20,"left_children":[1,3,5,-1,-1,7,-1,9,11,-1,13,-1,15,-1,17,-1,-1,-1,-1],"loss_changes":[5.7158595E-1,5.185954E-1,7.7376264E-1,0E0,0E0,6.629935E-1,0E0,7.961531E-1,6.798073E-1,0E0,6.6309375E-1,0E0,3.1342888E-1,0E0,6.467644E-1,0E0,0E0,0E0,0E0],"parents":[2147483647,0,0,1,1,2,2,5,5,7,7,8,8,10,10,12,12,14,14],"right_children":[2,4,6,-1,-1,8,-1,10,12,-1,14,-1,16,-1,18,-1,-1,-1,-1],"split_conditions":[1.8E1,1.18E2,1.81E2,1.7408913E-2,-1.9377917E-1,5.4E1,1.6011214E-1,2.48E1,5E0,-1.7081633E-1,5.5E1,3.9925057E-2,5.9E1,1.5062517E-1,5.2E1,-3.3672597E-2,-2.3748069E-1,-9.031763E-4,1.6631524E-1],"split_indices":[3,1,1,0,0,7,0,5,0,0,2,0,7,0,7,0,0,0,0],"split_type":[0,0,0,0,0,0,0,0,0,0,0,0,0,0,0,0,0,0,0],"sum_hessian":[6.217536E1,3.0798435E0,5.9095516E1,1.5098476E0,1.569996E0,5.734432E1,1.7511989E0,5.2758442E1,4.585877E0,1.1681219E0,5.159032E1,1.6467633E0,2.9391134E0,2.0476124E0,4.954271E1,1.4671391E0,1.4719743E0,4.8367847E1,1.1748605E0],"tree_param":{"num_deleted":"0","num_feature":"8","num_nodes":"19","size_leaf_vector":"1"}},{"base_weights":[-8.500689E-3,-2.9945305E-1,1.7978892E-2,1.0637618E-1,-5.6563425E-1,-1.0549964E-2,3.5628998E-1,-2.272888E-1,-2.6336392E-2,-3.8952123E-2,3.3545306E-1,1.4667878E-1,1.0340053E-2,3.759878E-2,-1.9292705E-1,1.6593347E-1,-1.1029353E-2,-1.2669528E-1,2.083548E-1,2.706601E-1,-3.3314234E-1,-1.4331326E-1,2.751931E-2,2.3932374E-1,3.0475589E-2,-1.0270454E-1,1.6211198E-1,-1.8057568E-1,2.4909807E-2],"categories":[],"categories_nodes":[],"categories_segments":[],"categories_sizes":[],"default_left":[0,0,0,0,0,0,0,0,0,0,0,0,0,0,0,0,0,0,0,0,0,0,0,0,0,0,0,0,0],"id":21,"left_children":[1,3,5,-1,7,9,11,-1,-1,13,15,-1,-1,17,19,-1,-1,21,23,25,27,-1,-1,-1,-1,-1,-1,-1,-1],"loss_changes":[4.8659036E-1,1.1174974E0,5.6541234E-1,0E0,3.12276E-1,5.500095E-1,1.7755699E-1,0E0,0E0,6.129765E-1,3.6456218E-1,0E0,0E0,1.0128218E0,1.2100242E0,0E0,0E0,1.4654262E0,1.0277541E0,9.376802E-1,1.5797036E0,0E0,0E0,0E0,0E0,0E0,0E0,0E0,0E0],"parents":[2147483647,0,0,1,1,2,2,4,4,5,5,6,6,9,9,10,10,13,13,14,14,17,17,18,18,19,19,20,20],"right_children":[2,4,6,-1,8,10,12,-1,-1,14,16,-1,-1,18,20,-1,-1,22,24,26,28,-1,-1,-1,-1,-1,-1,-1,-1],"split_conditions":[8.8E1,4.9E1,1.67E2,1.0637618E-1,6.74E-1,4.55E1,6.19E-1,-2.272888E-1,-2.6336392E-2,3.53E1,1.32E2,1.4667878E-1,1.0340053E-2,3.16E1,7E1,1.6593347E-1,-1.1029353E-2,7E1,3.19E1,3.7E1,1.3E2,-1.4331326E-1,2.751931E-2,2.3932374E-1,3.0475589E-2,-1.0270454E-1,1.6211198E-1,-1.8057568E-1,2.4909807E-2],"split_indices":[4,4,1,0,6,5,6,0,0,5,4,0,0,5,2,0,0,2,5,5,1,0,0,0,0,0,0,0,0],"split_type":[0,0,0,0,0,0,0,0,0,0,0,0,0,0,0,0,0,0,0,0,0,0,0,0,0,0,0,0,0],"sum_hessian":[6.1459507E1,4.2668943E0,5.719261E1,1.1381619E0,3.1287324E0,5.363826E1,3.554353E0,1.8142656E0,1.3144667E0,5.0389397E1,3.2488635E0,2.14928E0,1.4050729E0,3.4161377E1,1.622802E1,1.7434003E0,1.5054632E0,1.7541622E1,1.6619755E1,3.5524397E0,1.267558E1,6.2732773E0,1.1268344E1,1.5564041E0,1.5063351E1,1.0031523E0,2.5492873E0,7.4304748E0,5.245105E0],"tree_param":{"num_deleted":"0","num_feature":"8","num_nodes":"29","size_leaf_vector":"1"}},{"base_weights":[-3.3705246E-3,-4.49163E-2,1.8269765E-1,-2.276792E-1,2.0859243E-2,-2.7502167E-1,4.3189007E-1,-4.0632144E-1,2.1776314E-1,2.7752936E-1,-5.7586692E-2,4.7964454E-2,-1.5706486E-1,-5.2818947E-2,5.522512E-1,2.9000511E-2,-4.9698105E-1,-7.1797974E-2,5.064885E-1,6.166775E-1,-3.862292E-1,-3.4740925E-1,5.741224E-2,6.467431E-1,3.390629E-3,-5.6965166E-1,-2.6736507E-2,1.9168104E-1,3.649112E-2,7.829012E-1,-2.9002618E-2,-1.555937E-1,-2.6147855E-2,2.5527248E-1,-6.695248E-1,3.4617054E-1,-1.5812978E-1,3.1252402E-1,2.4590714E-1,-7.7891916E-2,-2.5361824E-1,4.7827493E-2,2.7137578E-1,1.9412301E-1,-7.977447E-2,-6.263409E-2,-2.652669E-1,1.4003494E-1,-8.2144275E-2,5.0159395E-3,-1.5310061E-1,6.23132E-3,1.336419E-1],"categories":[],"categories_nodes":[],"categories_segments":[],"categories_sizes":[],"default_left":[0,0,0,0,0,0,0,0,0,0,0,0,0,0,0,0,0,0,0,0,0,0,0,0,0,0,0,0,0,0,0,0,0,0,0,0,0,0,0,0,0,0,0,0,0,0,0,0,0,0,0,0,0],"id":22,"left_children":[1,3,5,7,9,11,13,15,17,19,21,-1,-1,-1,23,-1,25,-1,27,29,31,33,35,37,-1,39,-1,-1,-1,41,-1,-1,-1,43,45,47,49,51,-1,-1,-1,-1,-1,-1,-1,-1,-1,-1,-1,-1,-1,-1,-1],"loss_changes":[4.806671E-1,6.150085E-1,1.4137031E0,1.1642361E0,7.860535E-1,5.8230215E-1,6.635983E-1,5.039599E-1,7.178383E-1,2.292257E0,1.0238658E0,0E0,0E0,0E0,3.3529758E-1,0E0,2.0513797E-1,0E0,7.9867005E-2,8.374369E-1,1.0134292E-1,1.8595712E0,1.4503248E0,7.261515E-2,0E0,3.9109325E-1,0E0,0E0,0E0,2.5940156E-1,0E0,0E0,0E0,9.3859076E-1,4.0345144E-1,8.67908E-1,8.4147656E-1,1.2867478E-1,0E0,0E0,0E0,0E0,0E0,0E0,0E0,0E0,0E0,0E0,0E0,0E0,0E0,0E0,0E0],"parents":[2147483647,0,0,1,1,2,2,3,3,4,4,5,5,6,6,7,7,8,8,9,9,10,10,14,14,16,16,18,18,19,19,20,20,21,21,22,22,23,23,25,25,29,29,33,33,34,34,35,35,36,36,37,37],"right_children":[2,4,6,8,10,12,14,16,18,20,22,-1,-1,-1,24,-1,26,-1,28,30,32,34,36,38,-1,40,-1,-1,-1,42,-1,-1,-1,44,46,48,50,52,-1,-1,-1,-1,-1,-1,-1,-1,-1,-1,-1,-1,-1,-1,-1],"split_conditions":[8E0,3.04E1,2.59E-1,4.1E1,2.49E-1,1E1,1.25E2,1.5E1,2.57E-1,3.1E1,3.42E-1,4.7964454E-2,-1.5706486E-1,-5.2818947E-2,9.62E-1,2.9000511E-2,7.31E-1,-7.1797974E-2,5E0,4.4E1,1.15E2,2E0,5.57E-1,3E1,3.390629E-3,4E0,-2.6736507E-2,1.9168104E-1,3.649112E-2,2.5E1,-2.9002618E-2,-1.555937E-1,-2.6147855E-2,3.1E1,2.89E-1,4.24E1,5E0,1.13E2,2.4590714E-1,-7.7891916E-2,-2.5361824E-1,4.7827493E-2,2.7137578E-1,1.9412301E-1,-7.977447E-2,-6.263409E-2,-2.652669E-1,1.4003494E-1,-8.2144275E-2,5.0159395E-3,-1.5310061E-1,6.23132E-3,1.336419E-1],"split_indices":[0,5,6,7,6,0,4,3,6,3,6,0,0,0,6,0,6,0,0,7,1,0,6,3,0,0,0,0,0,7,0,0,0,3,6,5,0,1,0,0,0,0,0,0,0,0,0,0,0,0,0,0,0],"split_type":[0,0,0,0,0,0,0,0,0,0,0,0,0,0,0,0,0,0,0,0,0,0,0,0,0,0,0,0,0,0,0,0,0,0,0,0,0,0,0,0,0,0,0,0,0,0,0,0,0,0,0,0,0],"sum_hessian":[6.0117702E1,4.9764717E1,1.0352988E1,1.2518778E1,3.7245937E1,3.6129785E0,6.74001E0,8.998002E0,3.5207756E0,8.124675E0,2.9121264E1,1.4435577E0,2.1694207E0,1.0373726E0,5.702637E0,1.3640151E0,7.633987E0,1.429223E0,2.0915525E0,5.424137E0,2.7005377E0,7.6984644E0,2.1422798E1,4.68815E0,1.0144874E0,6.142803E0,1.4911839E0,1.0648599E0,1.0266926E0,4.3200054E0,1.1041318E0,1.3629011E0,1.3376366E0,2.7537255E0,4.944739E0,8.897247E0,1.2525551E1,2.5559154E0,2.1322346E0,3.8057146E0,2.3370888E0,1.0827029E0,3.2373025E0,1.4340962E0,1.3196294E0,2.1987135E0,2.746025E0,7.6551175E0,1.2421303E0,9.006751E0,3.5188003E0,1.1620535E0,1.393862E0],"tree_param":{"num_deleted":"0","num_feature":"8","num_nodes":"53","size_leaf_vector":"1"}},{"base_weights":[-5.0692656E-3,-1.9861788E-1,2.8753368E-2,-2.9836684E-1,5.611667E-2,6.2236357E-2,-2.7213582E-1,-4.2895043E-1,8.1183404E-2,1.0537261E-2,2.9308245E-1,2.2971638E-2,-4.5843956E-1,-1.8547292E-1,-1.2655593E-1,5.0611436E-2,-3.0377024E-1,1.4796935E-2,6.476616E-1,-2.514516E-2,-1.9125347E-1,-1.2659936E-1,5.5289663E-2,-7.498517E-2,3.086703E-1,4.8819672E-2,-1.9321224E-1,-2.6981264E-1,1.8503554E-1,2.2478308E-1,6.1669905E-2,6.756534E-3,-1.5133274E-1,1.4969428E-1,-5.0049983E-2,3.884734E-2,-1.7373168E-1],"categories":[],"categories_nodes":[],"categories_segments":[],"categories_sizes":[],"default_left":[0,0,0,0,0,0,0,0,0,0,0,0,0,0,0,0,0,0,0,0,0,0,0,0,0,0,0,0,0,0,0,0,0,0,0,0,0],"id":23,"left_children":[1,3,5,7,-1,9,11,13,-1,15,17,-1,19,-1,21,23,25,27,29,-1,-1,-1,-1,31,33,-1,-1,35,-1,-1,-1,-1,-1,-1,-1,-1,-1],"loss_changes":[3.9603135E-1,4.0188777E-1,5.370766E-1,6.757508E-1,0E0,5.6108624E-1,3.8306227E-1,2.9459274E-1,0E0,5.149162E-1,8.4024304E-1,0E0,1.9035447E-1,0E0,4.2354655E-1,1.1910015E0,8.3938503E-1,1.1684889E0,1.5053511E-2,0E0,0E0,0E0,0E0,1.0599566E0,1.1683793E0,0E0,0E0,6.513583E-1,0E0,0E0,0E0,0E0,0E0,0E0,0E0,0E0,0E0],"parents":[2147483647,0,0,1,1,2,2,3,3,5,5,6,6,7,7,9,9,10,10,12,12,14,14,15,15,16,16,17,17,18,18,23,23,24,24,27,27],"right_children":[2,4,6,8,-1,10,12,14,-1,16,18,-1,20,-1,22,24,26,28,30,-1,-1,-1,-1,32,34,-1,-1,36,-1,-1,-1,-1,-1,-1,-1,-1,-1],"split_conditions":[1.01E2,4.4E1,5.4E1,8.2E1,5.611667E-2,8E0,5E0,4.91E-1,8.1183404E-2,9E1,4.22E-1,2.2971638E-2,6E1,-1.8547292E-1,3.25E1,3.5E1,2E0,8E1,8.39E-1,-2.514516E-2,-1.9125347E-1,-1.2659936E-1,5.5289663E-2,5E0,6.31E-1,4.8819672E-2,-1.9321224E-1,2.15E-1,1.8503554E-1,2.2478308E-1,6.1669905E-2,6.756534E-3,-1.5133274E-1,1.4969428E-1,-5.0049983E-2,3.884734E-2,-1.7373168E-1],"split_indices":[1,7,7,2,0,0,0,6,0,2,6,0,7,0,5,7,0,2,6,0,0,0,0,0,6,0,0,6,0,0,0,0,0,0,0,0,0],"split_type":[0,0,0,0,0,0,0,0,0,0,0,0,0,0,0,0,0,0,0,0,0,0,0,0,0,0,0,0,0,0,0,0,0,0,0,0,0],"sum_hessian":[5.8624367E1,7.995889E0,5.0628475E1,6.5326786E0,1.4632103E0,4.6272434E1,4.356044E0,5.5134225E0,1.0192564E0,3.865999E1,7.6124444E0,1.721979E0,2.6340647E0,2.748455E0,2.7649672E0,3.5032345E1,3.6276453E0,4.8487306E0,2.7637138E0,1.3266822E0,1.3073826E0,1.2343136E0,1.5306536E0,2.4041052E1,1.0991292E1,1.7500821E0,1.877563E0,3.6668873E0,1.1818433E0,1.6822248E0,1.081489E0,2.0364836E1,3.6762152E0,7.814375E0,3.1769173E0,1.8542906E0,1.8125966E0],"tree_param":{"num_deleted":"0","num_feature":"8","num_nodes":"37","size_leaf_vector":"1"}},{"base_weights":[-6.69454E-3,-2.7345145E-2,3.1837213E-1,-1.379633E-1,-3.400131E-3,2.0341827E-1,-8.635494E-2,-1.1313351E-1,5.150985E-2,-6.0062337E-1,2.0206038E-2,3.0705744E-1,-2.959503E-2,-2.2548917E-1,-2.8620956E-2,1.0631121E-1,-1.4575255E-1,5.051441E-1,-1.8485892E-1,1.2005695E-1,-2.8768227E-1,5.669451E-2,-1.0034849E-1,-3.0834772E-2,2.0159264E-1,-1.03247635E-1,1.4906071E-2,-9.078682E-2,6.9372535E-2,-1.5691912E-1,2.2294248E-2],"categories":[],"categories_nodes":[],"categories_segments":[],"categories_sizes":[],"default_left":[0,0,0,0,0,0,0,0,0,0,0,0,0,0,0,0,0,0,0,0,0,0,0,0,0,0,0,0,0,0,0],"id":24,"left_children":[1,3,5,-1,7,-1,-1,9,11,13,15,17,19,-1,-1,21,-1,23,25,27,29,-1,-1,-1,-1,-1,-1,-1,-1,-1,-1],"loss_changes":[3.9996988E-1,5.755838E-1,9.7158957E-1,0E0,3.3005545E-1,0E0,0E0,1.1989921E0,7.666457E-1,2.2995925E-1,7.185287E-1,9.5998967E-1,1.141375E0,0E0,0E0,5.6974274E-1,0E0,7.392905E-1,1.39848E-1,9.5559967E-1,9.601727E-1,0E0,0E0,0E0,0E0,0E0,0E0,0E0,0E0,0E0,0E0],"parents":[2147483647,0,0,1,1,2,2,4,4,7,7,8,8,9,9,10,10,11,11,12,12,15,15,17,17,18,18,19,19,20,20],"right_children":[2,4,6,-1,8,-1,-1,10,12,14,16,18,20,-1,-1,22,-1,24,26,28,30,-1,-1,-1,-1,-1,-1,-1,-1,-1,-1],"split_conditions":[1.182E0,8.8E1,1.4E0,-1.379633E-1,3.16E1,2.0341827E-1,-8.635494E-2,2E0,3.31E1,3E1,3.12E1,8.2E1,1.32E2,-2.2548917E-1,-2.8620956E-2,5.4E1,-1.4575255E-1,2.5E1,3.42E-1,3.43E1,8E1,5.669451E-2,-1.0034849E-1,-3.0834772E-2,2.0159264E-1,-1.03247635E-1,1.4906071E-2,-9.078682E-2,6.9372535E-2,-1.5691912E-1,2.2294248E-2],"split_indices":[6,1,6,0,5,0,0,0,5,7,5,2,4,0,0,7,0,7,6,5,2,0,0,0,0,0,0,0,0,0,0],"split_type":[0,0,0,0,0,0,0,0,0,0,0,0,0,0,0,0,0,0,0,0,0,0,0,0,0,0,0,0,0,0,0],"sum_hessian":[5.728605E1,5.4725372E1,2.5606763E0,1.9156853E0,5.2809685E1,1.5327494E0,1.0279268E0,1.7258852E1,3.5550835E1,2.9541187E0,1.4304732E1,7.8935814E0,2.7657253E1,1.8988386E0,1.05528E0,1.2899733E1,1.4049996E0,5.608314E0,2.285267E0,1.7844774E1,9.812479E0,1.1343594E1,1.5561397E0,1.2903271E0,4.3179874E0,1.0826243E0,1.2026428E0,3.3578372E0,1.44869375E1,5.676499E0,4.1359806E0],"tree_param":{"num_deleted":"0","num_feature":"8","num_nodes":"31","size_leaf_vector":"1"}},{"base_weights":[-1.4703794E-2,-3.744402E-2,2.6759136E-1,-1.8721642E-2,-1.4101242E-1,5.047123E-2,1.335757E-1,-4.7576603E-2,3.6664873E-1,-3.9108373E-2,6.1437014E-2,9.765137E-3,-2.5136867E-1,1.6983826E-1,-1.55276125E-2,-9.512831E-2,1.9430304E-1,2.4514517E-1,-4.010208E-1,3.637628E-4,-1.8018425E-1,2.0213804E-1,2.5517974E-2,1.3767783E-1,-3.1431746E-2,-1.841236E-1,-3.056254E-2],"categories":[],"categories_nodes":[],"categories_segments":[],"categories_sizes":[],"default_left":[0,0,0,0,0,0,0,0,0,0,0,0,0,0,0,0,0,0,0,0,0,0,0,0,0,0,0],"id":25,"left_children":[1,3,5,7,-1,9,-1,11,13,-1,-1,15,17,-1,-1,19,21,23,25,-1,-1,-1,-1,-1,-1,-1,-1],"loss_changes":[3.7706834E-1,4.2687684E-1,1.4668539E-1,6.0237247E-1,0E0,1.13242194E-1,0E0,5.846768E-1,3.4472114E-1,0E0,0E0,7.897591E-1,9.1401577E-1,0E0,0E0,1.2706071E0,7.163049E-1,2.847011E-1,4.9841142E-1,0E0,0E0,0E0,0E0,0E0,0E0,0E0,0E0],"parents":[2147483647,0,0,1,1,2,2,3,3,5,5,7,7,8,8,11,11,12,12,15,15,16,16,17,17,18,18],"right_children":[2,4,6,8,-1,10,-1,12,14,-1,-1,16,18,-1,-1,20,22,24,26,-1,-1,-1,-1,-1,-1,-1,-1],"split_conditions":[1.67E2,1.64E2,4E0,4.55E1,-1.4101242E-1,3.41E1,1.335757E-1,3.81E1,3E0,-3.9108373E-2,6.1437014E-2,5.28E-1,7E1,1.6983826E-1,-1.55276125E-2,4.07E-1,5.46E-1,3.92E1,4E0,3.637628E-4,-1.8018425E-1,2.0213804E-1,2.5517974E-2,1.3767783E-1,-3.1431746E-2,-1.841236E-1,-3.056254E-2],"split_indices":[1,1,0,5,0,5,0,5,0,0,0,6,2,0,0,6,6,5,0,0,0,0,0,0,0,0,0],"split_type":[0,0,0,0,0,0,0,0,0,0,0,0,0,0,0,0,0,0,0,0,0,0,0,0,0,0,0],"sum_hessian":[5.6177532E1,5.2792225E1,3.385308E0,5.160221E1,1.1900147E0,2.1013396E0,1.2839687E0,4.882308E1,2.77913E0,1.0390346E0,1.062305E0,3.8845154E1,9.977924E0,1.6428404E0,1.1362895E0,2.5076113E1,1.3769043E1,2.1631045E0,7.8148203E0,2.1899815E1,3.1762981E0,1.5960072E0,1.2173037E1,1.1493732E0,1.0137312E0,3.9525054E0,3.8623147E0],"tree_param":{"num_deleted":"0","num_feature":"8","num_nodes":"27","size_leaf_vector":"1"}},{"base_weights":[-8.750935E-3,-1.717183E-1,2.6667466E-2,-3.0920774E-1,8.1659034E-2,6.908108E-2,-2.20201E-1,-6.1475736E-1,5.7370565E-3,-1.9229975E-1,1.2125163E-1,2.7499786E-1,-5.149516E-1,-3.9581064E-2,-2.1740209E-1,-9.437818E-2,2.912515E-1,5.8692075E-2,-2.0476241E-1,1.6593507E-1,-2.8991327E-1,-2.2157213E-2,1.3920775E-1,-2.4236126E-1,3.593944E-2,2.0581661E-1,-8.362401E-2,-2.3316579E-1,3.1546277E-1,1.0251415E-1,4.9151602E-1,2.0204335E-2,-1.8695095E-1,2.5038315E-2,-1.2889042E-1,1.7099571E-1,-1.8184155E-2,4.5865223E-2,-1.1008048E-1,6.494659E-2,2.0491265E-1],"categories":[],"categories_nodes":[],"categories_segments":[],"categories_sizes":[],"default_left":[0,0,0,0,0,0,0,0,0,0,0,0,0,0,0,0,0,0,0,0,0,0,0,0,0,0,0,0,0,0,0,0,0,0,0,0,0,0,0,0,0],"id":26,"left_children":[1,3,5,7,-1,9,11,13,15,17,19,21,23,-1,-1,-1,25,27,-1,29,31,-1,-1,-1,-1,-1,-1,33,35,37,39,-1,-1,-1,-1,-1,-1,-1,-1,-1,-1],"loss_changes":[3.2963854E-1,7.0601946E-1,5.0866354E-1,7.97192E-1,0E0,5.821214E-1,1.1850034E0,1.2703907E-1,5.5368227E-1,9.2661417E-1,6.869827E-1,2.531485E-1,9.946979E-1,0E0,0E0,0E0,9.092078E-1,4.996764E-1,0E0,6.1039585E-1,4.9113864E-1,0E0,0E0,0E0,0E0,0E0,0E0,2.3717558E-1,3.6477253E-1,7.193123E-1,1.1307001E-1,0E0,0E0,0E0,0E0,0E0,0E0,0E0,0E0,0E0,0E0],"parents":[2147483647,0,0,1,1,2,2,3,3,5,5,6,6,7,7,8,8,9,9,10,10,11,11,12,12,16,16,17,17,19,19,20,20,27,27,28,28,29,29,30,30],"right_children":[2,4,6,8,-1,10,12,14,16,18,20,22,24,-1,-1,-1,26,28,-1,30,32,-1,-1,-1,-1,-1,-1,34,36,38,40,-1,-1,-1,-1,-1,-1,-1,-1,-1,-1],"split_conditions":[1.25E2,8.4E1,8.8E1,4.96E-1,8.1659034E-2,1.92E-1,2E0,2.23E-1,1.07E2,3E1,5.7E1,3.26E-1,4E1,-3.9581064E-2,-2.1740209E-1,-9.437818E-2,1.16E2,3E1,-2.0476241E-1,4.5E1,5.36E-1,-2.2157213E-2,1.3920775E-1,-2.4236126E-1,3.593944E-2,2.0581661E-1,-8.362401E-2,1.42E-1,4.2E1,4.3E1,3E1,2.0204335E-2,-1.8695095E-1,2.5038315E-2,-1.2889042E-1,1.7099571E-1,-1.8184155E-2,4.5865223E-2,-1.1008048E-1,6.494659E-2,2.0491265E-1],"split_indices":[4,2,2,6,0,6,0,6,1,3,7,6,7,0,0,0,1,7,0,7,6,0,0,0,0,0,0,6,7,3,3,0,0,0,0,0,0,0,0,0,0],"split_type":[0,0,0,0,0,0,0,0,0,0,0,0,0,0,0,0,0,0,0,0,0,0,0,0,0,0,0,0,0,0,0,0,0,0,0,0,0,0,0,0,0],"sum_hessian":[5.5316147E1,9.188712E0,4.6127438E1,7.2474756E0,1.9412365E0,3.997896E1,6.1484766E0,3.195423E0,4.052053E0,6.205027E0,3.3773933E1,2.3191607E0,3.8293157E0,1.0005821E0,2.194841E0,1.8615973E0,2.1904557E0,4.6861243E0,1.5189029E0,3.1001287E1,2.772645E0,1.0291393E0,1.2900213E0,2.4335577E0,1.3957582E0,1.1738144E0,1.0166411E0,2.2362387E0,2.4498858E0,2.704749E1,3.9537988E0,1.7232159E0,1.0494292E0,1.076523E0,1.1597157E0,1.1535621E0,1.2963238E0,2.5035606E1,2.0118823E0,2.4976137E0,1.456185E0],"tree_param":{"num_deleted":"0","num_feature":"8","num_nodes":"41","size_leaf_vector":"1"}},{"base_weights":[-1.3803572E-2,-8.284766E-2,8.1190065E-2,-4.1246492E-2,-1.6667941E-1,2.8630948E-1,-8.183418E-2,8.007226E-2,-1.708133E-1,-2.9120246E-2,6.4322466E-1,-3.4872347E-1,8.416563E-2,-1.8409422E-1,3.674917E-1,1.3174777E-1,-2.8006706E-1,-1.6350016E-1,2.1444304E-1,4.008883E-2,2.2652742E-1,-6.27854E-1,4.8032157E-2,2.2138394E-1,-2.3003545E-1,-3.2614246E-1,1.2518191E-1,6.4864314E-1,-3.96867E-2,-4.2076595E-2,3.1597924E-1,-2.3137201E-1,-5.5728137E-2,-6.812636E-2,4.893477E-1,-2.6842162E-1,8.136647E-3,-7.995403E-2,5.833462E-1,-2.2598548E-1,1.0363239E-1,-1.7915148E-1,2.7469806E-2,3.4121413E-2,2.492791E-1,1.638475E-1,-1.2900254E-1,1.24000095E-1,2.1174977E-2,1.19400844E-1,-5.3558096E-2,2.2652742E-1,-2.2839807E-2,-1.5438925E-1,7.519177E-2,2.2562335E-1,3.2032557E-2],"categories":[],"categories_nodes":[],"categories_segments":[],"categories_sizes":[],"default_left":[0,0,0,0,0,0,0,0,0,0,0,0,0,0,0,0,0,0,0,0,0,0,0,0,0,0,0,0,0,0,0,0,0,0,0,0,0,0,0,0,0,0,0,0,0,0,0,0,0,0,0,0,0,0,0,0,0],"id":27,"left_children":[1,3,5,7,-1,9,11,13,15,17,19,21,23,25,27,29,31,-1,33,-1,-1,35,-1,37,39,41,-1,43,45,-1,47,-1,49,-1,51,-1,-1,53,55,-1,-1,-1,-1,-1,-1,-1,-1,-1,-1,-1,-1,-1,-1,-1,-1,-1,-1],"loss_changes":[3.680079E-1,6.141719E-1,8.156125E-1,4.9866763E-1,0E0,1.2248083E0,6.485886E-1,1.3291736E0,5.4063666E-1,9.516431E-1,1.8807936E-1,8.8939416E-1,4.5718715E-1,9.32573E-1,9.748912E-1,2.8099218E-1,1.2259614E0,0E0,7.460067E-1,0E0,0E0,6.867497E-1,0E0,8.175913E-1,1.2703786E0,9.7210747E-1,0E0,3.893361E-1,1.2247243E0,0E0,4.5440048E-2,0E0,5.7157785E-1,0E0,5.895301E-1,0E0,0E0,8.096381E-1,1.8760216E-1,0E0,0E0,0E0,0E0,0E0,0E0,0E0,0E0,0E0,0E0,0E0,0E0,0E0,0E0,0E0,0E0,0E0,0E0],"parents":[2147483647,0,0,1,1,2,2,3,3,5,5,6,6,7,7,8,8,9,9,10,10,11,11,12,12,13,13,14,14,15,15,16,16,18,18,21,21,23,23,24,24,25,25,27,27,28,28,30,30,32,32,34,34,37,37,38,38],"right_children":[2,4,6,8,-1,10,12,14,16,18,20,22,24,26,28,30,32,-1,34,-1,-1,36,-1,38,40,42,-1,44,46,-1,48,-1,50,-1,52,-1,-1,54,56,-1,-1,-1,-1,-1,-1,-1,-1,-1,-1,-1,-1,-1,-1,-1,-1,-1,-1],"split_conditions":[1.3E2,1.29E2,7.4E1,3.38E1,-1.6667941E-1,7E1,8E1,1.12E2,7E1,2.7E1,2.43E-1,1.55E2,3.95E1,1E1,1.21E2,4.72E-1,7.4E1,-1.6350016E-1,2.98E1,4.008883E-2,2.2652742E-1,4.35E-1,4.8032157E-2,3.25E1,4.18E1,6.27E-1,1.2518191E-1,2.96E1,2.9E1,-4.2076595E-2,6.96E-1,-2.3137201E-1,2.8E1,-6.812636E-2,5.36E-1,-2.6842162E-1,8.136647E-3,1.38E2,1.49E2,-2.2598548E-1,1.0363239E-1,-1.7915148E-1,2.7469806E-2,3.4121413E-2,2.492791E-1,1.638475E-1,-1.2900254E-1,1.24000095E-1,2.1174977E-2,1.19400844E-1,-5.3558096E-2,2.2652742E-1,-2.2839807E-2,-1.5438925E-1,7.519177E-2,2.2562335E-1,3.2032557E-2],"split_indices":[1,1,2,5,0,2,2,1,2,3,6,1,5,0,1,6,2,0,5,0,0,6,0,5,5,6,0,5,3,0,6,0,3,0,6,0,0,1,1,0,0,0,0,0,0,0,0,0,0,0,0,0,0,0,0,0,0],"split_type":[0,0,0,0,0,0,0,0,0,0,0,0,0,0,0,0,0,0,0,0,0,0,0,0,0,0,0,0,0,0,0,0,0,0,0,0,0,0,0,0,0,0,0,0,0,0,0,0,0,0,0,0,0,0,0,0,0],"sum_hessian":[5.40839E1,3.1393831E1,2.2690071E1,2.9853983E1,1.5398481E0,9.712911E0,1.29771595E1,1.5615007E1,1.4238975E1,5.6436515E0,4.069259E0,4.5542436E0,8.422916E0,8.323965E0,7.291043E0,3.7229528E0,1.0516022E1,1.4130728E0,4.2305784E0,1.12752E0,2.9417393E0,2.789878E0,1.7643659E0,6.0682073E0,2.3547087E0,7.1036787E0,1.2202864E0,3.9621851E0,3.328858E0,1.5997502E0,2.1232026E0,2.5328047E0,7.983217E0,1.6900648E0,2.5405138E0,1.7221048E0,1.067773E0,3.7365737E0,2.3316336E0,1.0714879E0,1.2832208E0,4.047701E0,3.0559776E0,1.4198155E0,2.5423696E0,1.1714075E0,2.1574502E0,1.0301603E0,1.0930424E0,1.2230519E0,6.760165E0,1.5001969E0,1.0403169E0,1.3736962E0,2.3628776E0,1.2950236E0,1.0366101E0],"tree_param":{"num_deleted":"0","num_feature":"8","num_nodes":"57","size_leaf_vector":"1"}},{"base_weights":[-7.6412316E-3,2.8854814E-1,-2.544822E-2,-3.5660667E-4,1.3001347E-1,-1.3113622E-1,-4.6847216E-3,-2.3860453E-1,2.1273315E-2,-1.7011641E-1,1.5226734E-1,1.2591742E-3,1.2904228E-1,1.3340306E-1,-6.797716E-2,5.9844803E-2,-2.2217162E-1,6.547026E-3,1.4612246E-1,6.0591724E-2,-1.2259897E-1],"categories":[],"categories_nodes":[],"categories_segments":[],"categories_sizes":[],"default_left":[0,0,0,0,0,0,0,0,0,0,0,0,0,0,0,0,0,0,0,0,0],"id":28,"left_children":[1,3,5,-1,-1,-1,7,9,11,-1,13,15,-1,-1,-1,17,19,-1,-1,-1,-1],"loss_changes":[2.8659037E-1,1.2991226E-1,4.3270743E-1,0E0,0E0,0E0,3.052232E-1,7.307259E-1,3.7106523E-1,0E0,4.4198534E-1,5.9311116E-1,0E0,0E0,0E0,5.722185E-1,8.2717884E-1,0E0,0E0,0E0,0E0],"parents":[2147483647,0,0,1,1,2,2,6,6,7,7,8,8,10,10,11,11,15,15,16,16],"right_children":[2,4,6,-1,-1,-1,8,10,12,-1,14,16,-1,-1,-1,18,20,-1,-1,-1,-1],"split_conditions":[5.5E1,3E0,6E1,-3.5660667E-4,1.3001347E-1,-1.3113622E-1,2.3E1,3.33E1,4.83E1,-1.7011641E-1,1.26E2,3.86E1,1.2904228E-1,1.3340306E-1,-6.797716E-2,1.057E0,7.5E1,6.547026E-3,1.4612246E-1,6.0591724E-2,-1.2259897E-1],"split_indices":[2,0,2,0,0,0,7,5,5,0,4,5,0,0,0,6,2,0,0,0,0],"split_type":[0,0,0,0,0,0,0,0,0,0,0,0,0,0,0,0,0,0,0,0,0],"sum_hessian":[5.1945507E1,2.083629E0,4.9861877E1,1.0249596E0,1.0586693E0,1.4313095E0,4.843057E1,4.0192575E0,4.4411312E1,1.9390924E0,2.0801651E0,4.329509E1,1.1162225E0,1.0759765E0,1.0041887E0,3.4881096E1,8.413992E0,3.299572E1,1.8853763E0,2.5443287E0,5.8696632E0],"tree_param":{"num_deleted":"0","num_feature":"8","num_nodes":"21","size_leaf_vector":"1"}},{"base_weights":[-3.4927598E-3,-2.4546068E-2,2.5885546E-1,-5.7816565E-2,1.9257763E-1,2.493912E-2,1.13720275E-1,-2.3744034E-2,-1.5454414E-1,-1.3066837E-1,4.1035584E-1,1.5724864E-2,-2.8075963E-1,-1.5426314E-1,7.63289E-2,1.290428E-2,5.144324E-1,-6.145972E-2,4.0936798E-1,-4.950626E-1,4.981234E-2,2.1199101E-1,1.9244028E-2,-4.1980348E-3,-1.7054006E-1,-5.808312E-3,1.636951E-1,-2.1118958E-1,-4.0289288E-4],"categories":[],"categories_nodes":[],"categories_segments":[],"categories_sizes":[],"default_left":[0,0,0,0,0,0,0,0,0,0,0,0,0,0,0,0,0,0,0,0,0,0,0,0,0,0,0,0,0],"id":29,"left_children":[1,3,5,7,9,-1,-1,11,-1,13,15,17,19,-1,-1,-1,21,23,25,27,-1,-1,-1,-1,-1,-1,-1,-1,-1],"loss_changes":[2.958364E-1,3.6821473E-1,5.2565366E-2,6.676618E-1,5.3223735E-1,0E0,0E0,4.2696935E-1,0E0,6.4708304E-1,1.4240879E-1,1.1510634E0,6.18241E-1,0E0,0E0,0E0,2.3701292E-1,7.5857294E-1,3.731345E-1,4.151916E-1,0E0,0E0,0E0,0E0,0E0,0E0,0E0,0E0,0E0],"parents":[2147483647,0,0,1,1,2,2,3,3,4,4,7,7,9,9,10,10,11,11,12,12,16,16,17,17,18,18,19,19],"right_children":[2,4,6,8,10,-1,-1,12,-1,14,16,18,20,-1,-1,-1,22,24,26,28,-1,-1,-1,-1,-1,-1,-1,-1,-1],"split_conditions":[1.67E2,4.18E1,4E0,3.96E1,3.6E1,2.493912E-2,1.13720275E-1,1.51E2,-1.5454414E-1,1.24E2,8E1,1.39E2,7E0,-1.5426314E-1,7.63289E-2,1.290428E-2,3.75E-1,9E1,2.9E1,1.7E2,4.981234E-2,2.1199101E-1,1.9244028E-2,-4.1980348E-3,-1.7054006E-1,-5.808312E-3,1.636951E-1,-2.1118958E-1,-4.0289288E-4],"split_indices":[1,5,0,5,3,0,0,1,0,1,2,1,0,0,0,0,6,2,3,4,0,0,0,0,0,0,0,0,0],"split_type":[0,0,0,0,0,0,0,0,0,0,0,0,0,0,0,0,0,0,0,0,0,0,0,0,0,0,0,0,0],"sum_hessian":[5.141117E1,4.843104E1,2.980129E0,4.2632114E1,5.798927E0,1.8976667E0,1.0824622E0,4.06551E1,1.977011E0,2.4952483E0,3.3036783E0,3.6056812E1,4.598289E0,1.0821745E0,1.4130738E0,1.0413818E0,2.2622967E0,3.0851414E1,5.2054005E0,3.0347087E0,1.5635803E0,1.1865224E0,1.0757742E0,2.9149977E1,1.7014359E0,1.4624934E0,3.7429073E0,1.8332034E0,1.2015053E0],"tree_param":{"num_deleted":"0","num_feature":"8","num_nodes":"29","size_leaf_vector":"1"}},{"base_weights":[-3.1064856E-3,-1.06962994E-1,5.1090136E-2,-2.6858088E-1,1.1365391E-1,-2.6374146E-1,9.732342E-2,-4.0324792E-1,8.0140285E-2,2.5750092E-1,-1.2685059E-1,9.9368185E-2,-2.175984E-1,1.8389349E-1,5.335351E-2,-2.247828E-1,-2.2671437E-1,-7.899733E-2,4.762187E-1,-5.2833144E-2,9.516796E-2,3.4185714E-1,-1.3932397E-5,-5.1570296E-1,4.9707055E-2,1.8777262E-1,1.8228069E-2,4.849185E-1,-2.1168703E-2,-1.2518927E-1,1.4349242E-1,-1.8898243E-1,-4.3526486E-2,1.414264E-1,-1.1125102E-1,3.548938E-2,1.8304776E-1,5.028023E-2,-8.088357E-2,8.4756285E-2,-1.0111759E-1],"categories":[],"categories_nodes":[],"categories_segments":[],"categories_sizes":[],"default_left":[0,0,0,0,0,0,0,0,0,0,0,0,0,0,0,0,0,0,0,0,0,0,0,0,0,0,0,0,0,0,0,0,0,0,0,0,0,0,0,0,0],"id":30,"left_children":[1,3,5,7,9,11,13,15,-1,17,-1,19,-1,-1,21,23,-1,-1,25,-1,-1,27,29,31,33,-1,-1,35,-1,37,39,-1,-1,-1,-1,-1,-1,-1,-1,-1,-1],"loss_changes":[2.9596502E-1,6.7306316E-1,5.2915186E-1,8.7954056E-1,7.511256E-1,8.5960895E-1,6.67706E-1,3.9297223E-1,0E0,9.437698E-1,0E0,2.664847E-1,0E0,0E0,4.5512542E-1,6.1364377E-1,0E0,0E0,2.9875934E-1,0E0,0E0,3.0647343E-1,4.8402917E-1,6.367499E-2,1.0085086E0,0E0,0E0,9.095943E-2,0E0,6.5374863E-1,9.3392766E-1,0E0,0E0,0E0,0E0,0E0,0E0,0E0,0E0,0E0,0E0],"parents":[2147483647,0,0,1,1,2,2,3,3,4,4,5,5,6,6,7,7,9,9,11,11,14,14,15,15,18,18,21,21,22,22,23,23,24,24,27,27,29,29,30,30],"right_children":[2,4,6,8,10,12,14,16,-1,18,-1,20,-1,-1,22,24,-1,-1,26,-1,-1,28,30,32,34,-1,-1,36,-1,38,40,-1,-1,-1,-1,-1,-1,-1,-1,-1,-1],"split_conditions":[3.16E1,6E0,1.92E-1,4.1E1,5.4E1,1.62E-1,3.19E1,7.5E1,8.0140285E-2,7E1,-1.2685059E-1,1.18E2,-2.175984E-1,1.8389349E-1,2.49E-1,1.17E2,-2.2671437E-1,-7.899733E-2,4.71E-1,-5.2833144E-2,9.516796E-2,3.7E1,3.2E1,6.74E-1,1.26E2,1.8777262E-1,1.8228069E-2,2.33E-1,-2.1168703E-2,3.35E1,2.3E2,-1.8898243E-1,-4.3526486E-2,1.414264E-1,-1.1125102E-1,3.548938E-2,1.8304776E-1,5.028023E-2,-8.088357E-2,8.4756285E-2,-1.0111759E-1],"split_indices":[5,0,6,7,7,6,5,2,0,2,0,1,0,0,6,1,0,0,6,0,0,3,3,6,4,0,0,6,0,5,4,0,0,0,0,0,0,0,0,0,0],"split_type":[0,0,0,0,0,0,0,0,0,0,0,0,0,0,0,0,0,0,0,0,0,0,0,0,0,0,0,0,0,0,0,0,0,0,0,0,0,0,0,0,0],"sum_hessian":[5.0610798E1,1.7020655E1,3.359014E1,9.698438E0,7.322217E0,3.69871E0,2.9891432E1,7.9478054E0,1.7506323E0,6.184117E0,1.1381E0,2.5094004E0,1.1893096E0,1.3318123E0,2.855962E1,6.3635025E0,1.5843028E0,1.7686186E0,4.4154983E0,1.1927782E0,1.3166221E0,3.6144156E0,2.4945204E1,2.6626763E0,3.7008262E0,2.873592E0,1.5419065E0,2.553025E0,1.0613908E0,1.3391728E1,1.1553475E1,1.5004547E0,1.1622216E0,1.7874354E0,1.9133906E0,1.1452034E0,1.4078215E0,4.3706203E0,9.021108E0,9.280591E0,2.2728846E0],"tree_param":{"num_deleted":"0","num_feature":"8","num_nodes":"41","size_leaf_vector":"1"}},{"base_weights":[-6.853947E-3,-2.8625317E-2,2.6418632E-1,1.1130953E-3,-2.488309E-1,2.8851444E-2,1.1074775E-1,-2.9267054E-2,2.632914E-1,-2.0100416E-1,-1.0515441E-2,2.1491623E-2,-2.5103655E-1,-3.630343E-2,4.5046785E-1,2.061352E-1,-1.1595646E-1,-1.53969E-1,1.2634023E-1,-4.6068594E-1,1.4984562E-1,1.7433259E-1,4.0547106E-2,-4.619003E-2,1.4248501E-1,-2.4983776E-3,-2.3090409E-1,-4.816602E-2,6.919971E-2,6.4804286E-2,-1.9212952E-1],"categories":[],"categories_nodes":[],"categories_segments":[],"categories_sizes":[],"default_left":[0,0,0,0,0,0,0,0,0,0,0,0,0,0,0,0,0,0,0,0,0,0,0,0,0,0,0,0,0,0,0],"id":31,"left_children":[1,3,5,7,9,-1,-1,11,13,-1,15,17,19,-1,21,23,-1,25,27,29,-1,-1,-1,-1,-1,-1,-1,-1,-1,-1,-1],"loss_changes":[3.0518827E-1,3.119186E-1,3.2362938E-2,3.4958547E-1,5.617404E-1,0E0,0E0,4.4852078E-1,3.823264E-1,0E0,4.5724347E-1,6.257135E-1,1.3961551E0,0E0,5.6420863E-2,4.209079E-1,0E0,1.1393667E0,6.708803E-1,9.061954E-1,0E0,0E0,0E0,0E0,0E0,0E0,0E0,0E0,0E0,0E0,0E0],"parents":[2147483647,0,0,1,1,2,2,3,3,4,4,7,7,8,8,10,10,11,11,12,12,14,14,15,15,17,17,18,18,19,19],"right_children":[2,4,6,8,10,-1,-1,12,14,-1,16,18,20,-1,22,24,-1,26,28,30,-1,-1,-1,-1,-1,-1,-1,-1,-1,-1,-1],"split_conditions":[1.67E2,1.53E2,4E0,4.31E1,1.55E2,2.8851444E-2,1.1074775E-1,8.4E1,8E1,-2.0100416E-1,1.64E2,3E0,7.31E-1,-3.630343E-2,8.8E1,2.99E-1,-1.1595646E-1,8.81E-1,1.07E2,2.5E1,1.4984562E-1,1.7433259E-1,4.0547106E-2,-4.619003E-2,1.4248501E-1,-2.4983776E-3,-2.3090409E-1,-4.816602E-2,6.919971E-2,6.4804286E-2,-1.9212952E-1],"split_indices":[1,1,0,5,1,0,0,2,2,0,1,0,6,0,2,6,0,6,1,7,0,0,0,0,0,0,0,0,0,0,0],"split_type":[0,0,0,0,0,0,0,0,0,0,0,0,0,0,0,0,0,0,0,0,0,0,0,0,0,0,0,0,0,0,0],"sum_hessian":[4.9437214E1,4.6589306E1,2.8479092E0,4.1922665E1,4.6666436E0,1.8319414E0,1.015968E0,3.8365406E1,3.557257E0,1.0317461E0,3.6348972E0,3.1954695E1,6.410711E0,1.280886E0,2.2763708E0,2.592756E0,1.0421412E0,1.1777296E1,2.0177399E1,5.3128176E0,1.0978934E0,1.0134879E0,1.262883E0,1.2908214E0,1.3019347E0,1.0344032E1,1.433264E0,5.2369337E0,1.4940465E1,1.0726744E0,4.2401433E0],"tree_param":{"num_deleted":"0","num_feature":"8","num_nodes":"31","size_leaf_vector":"1"}},{"base_weights":[-7.2977566E-3,-2.5621964E-2,2.801116E-1,-1.20373175E-1,-4.1687717E-3,2.712612E-2,9.9692486E-2,-1.17287956E-1,5.1512178E-2,-4.9445477E-1,-1.7375268E-2,-2.3043314E-1,9.402864E-2,-5.1067535E-2,-1.7864272E-1,-2.613385E-1,1.2594144E-1,2.8175047E-2,-1.318083E-1,4.0869406E-1,3.0942183E-2,-1.8939422E-1,1.9813595E-2,7.904661E-2,-5.9222978E-2,1.7092724E-1,-2.2120198E-2,-1.0820292E-1,1.9716905E-2],"categories":[],"categories_nodes":[],"categories_segments":[],"categories_sizes":[],"default_left":[0,0,0,0,0,0,0,0,0,0,0,0,0,0,0,0,0,0,0,0,0,0,0,0,0,0,0,0,0],"id":32,"left_children":[1,3,5,-1,7,-1,-1,9,11,13,15,17,19,-1,-1,21,23,-1,-1,25,27,-1,-1,-1,-1,-1,-1,-1,-1],"loss_changes":[2.6723534E-1,3.797738E-1,8.562207E-5,0E0,2.9444727E-1,0E0,0E0,5.7208717E-1,3.978256E-1,3.1423569E-3,4.950879E-1,3.395475E-1,5.4274875E-1,0E0,0E0,6.7358226E-1,4.523766E-1,0E0,0E0,3.9870352E-1,3.5588166E-1,0E0,0E0,0E0,0E0,0E0,0E0,0E0,0E0],"parents":[2147483647,0,0,1,1,2,2,4,4,7,7,8,8,9,9,10,10,11,11,12,12,15,15,16,16,19,19,20,20],"right_children":[2,4,6,-1,8,-1,-1,10,12,14,16,18,20,-1,-1,22,24,-1,-1,26,28,-1,-1,-1,-1,-1,-1,-1,-1],"split_conditions":[1.182E0,8.8E1,3E0,-1.20373175E-1,3.16E1,2.712612E-2,9.9692486E-2,2E0,1.92E-1,3.99E-1,7E1,1.5E-1,2.49E-1,-5.1067535E-2,-1.7864272E-1,3.15E-1,1.48E2,2.8175047E-2,-1.318083E-1,3.7E1,8.8E1,-1.8939422E-1,1.9813595E-2,7.904661E-2,-5.9222978E-2,1.7092724E-1,-2.2120198E-2,-1.0820292E-1,1.9716905E-2],"split_indices":[6,1,0,0,5,0,0,0,6,6,2,6,6,0,0,6,1,0,0,3,4,0,0,0,0,0,0,0,0],"split_type":[0,0,0,0,0,0,0,0,0,0,0,0,0,0,0,0,0,0,0,0,0,0,0,0,0,0,0,0,0],"sum_hessian":[4.8379276E1,4.6335915E1,2.0433624E0,1.546968E0,4.4788944E1,1.0305344E0,1.012828E0,1.4409253E1,3.0379692E1,2.190673E0,1.221858E1,3.401696E0,2.6977995E1,1.1582581E0,1.032415E0,4.216859E0,8.001721E0,1.5483861E0,1.8533098E0,3.590554E0,2.3387442E1,1.5438254E0,2.6730337E0,5.743628E0,2.258093E0,2.5561404E0,1.0344136E0,1.143386E0,2.2244055E1],"tree_param":{"num_deleted":"0","num_feature":"8","num_nodes":"29","size_leaf_vector":"1"}},{"base_weights":[-1.4375863E-2,1.2258793E-2,-2.5525042E-1,-1.3453785E-2,3.4271193E-1,-1.3455202E-1,9.15717E-3,1.8118722E-2,-2.0441857E-1,8.729707E-3,1.5278873E-1,-1.9909782E-2,3.0227405E-1,4.724127E-2,-3.9738566E-1,-1.8292682E-1,4.2969394E-2,-9.786925E-3,1.7497778E-1,-1.960813E-1,2.0484976E-2,-9.168786E-2,2.9036537E-2,1.1146976E-1,-3.8931047E-4],"categories":[],"categories_nodes":[],"categories_segments":[],"categories_sizes":[],"default_left":[0,0,0,0,0,0,0,0,0,0,0,0,0,0,0,0,0,0,0,0,0,0,0,0,0],"id":33,"left_children":[1,3,5,7,9,-1,-1,11,13,-1,-1,15,17,-1,19,21,23,-1,-1,-1,-1,-1,-1,-1,-1],"loss_changes":[3.153574E-1,3.850601E-1,2.8382915E-1,2.5997862E-1,1.5602696E-1,0E0,0E0,4.1009218E-1,4.8938543E-1,0E0,0E0,3.555325E-1,4.401755E-1,0E0,5.541087E-1,3.601404E-1,3.683007E-1,0E0,0E0,0E0,0E0,0E0,0E0,0E0,0E0],"parents":[2147483647,0,0,1,1,2,2,3,3,4,4,7,7,8,8,11,11,12,12,14,14,15,15,16,16],"right_children":[2,4,6,8,10,-1,-1,12,14,-1,-1,16,18,-1,20,22,24,-1,-1,-1,-1,-1,-1,-1,-1],"split_conditions":[5.4E1,1.66E2,1.43E2,1.92E2,1.32E2,-1.3455202E-1,9.15717E-3,1.56E2,7.2E1,8.729707E-3,1.5278873E-1,1.07E2,6.37E-1,4.724127E-2,8.4E1,3.74E1,1.1E2,-9.786925E-3,1.7497778E-1,-1.960813E-1,2.0484976E-2,-9.168786E-2,2.9036537E-2,1.1146976E-1,-3.8931047E-4],"split_indices":[7,1,1,4,4,0,0,4,2,0,0,1,6,0,2,5,1,0,0,0,0,0,0,0,0],"split_type":[0,0,0,0,0,0,0,0,0,0,0,0,0,0,0,0,0,0,0,0,0,0,0,0,0],"sum_hessian":[4.766696E1,4.3775593E1,3.8913698E0,4.1505344E1,2.2702467E0,1.9817551E0,1.9096147E0,3.6393475E1,5.111871E0,1.1950711E0,1.0751756E0,3.291799E1,3.4754813E0,1.8417716E0,3.270099E0,8.631436E0,2.4286556E1,1.9888878E0,1.4865935E0,1.8491082E0,1.4209908E0,5.9352555E0,2.6961808E0,2.0055506E0,2.2281006E1],"tree_param":{"num_deleted":"0","num_feature":"8","num_nodes":"25","size_leaf_vector":"1"}},{"base_weights":[-7.996302E-3,-2.6309041E-2,8.749953E-2,-3.0533203E-1,-2.5202741E-3,-1.618459E-1,1.9836299E-4,1.3235766E-1,-2.3792984E-2,-9.05588E-2,-3.6368652E-3,2.452642E-2,-2.3882677E-1,-4.2923964E-3,1.15471594E-1,-1.3906373E-1,1.5019322E-2],"categories":[],"categories_nodes":[],"categories_segments":[],"categories_sizes":[],"default_left":[0,0,0,0,0,0,0,0,0,0,0,0,0,0,0,0,0],"id":34,"left_children":[1,3,-1,5,7,-1,-1,-1,9,-1,11,13,15,-1,-1,-1,-1],"loss_changes":[2.7058274E-1,3.0500928E-1,0E0,2.5906393E-1,4.2068508E-1,0E0,0E0,0E0,2.366444E-1,0E0,2.7453485E-1,5.2517223E-1,3.108629E-1,0E0,0E0,0E0,0E0],"parents":[2147483647,0,0,1,1,3,3,4,4,8,8,10,10,11,11,12,12],"right_children":[2,4,-1,6,8,-1,-1,-1,10,-1,12,14,16,-1,-1,-1,-1],"split_conditions":[1.2E1,9.3E1,8.749953E-2,4.83E-1,9.6E1,-1.618459E-1,1.9836299E-4,1.3235766E-1,1.01E2,-9.05588E-2,5.4E1,9.55E-1,1.43E2,-4.2923964E-3,1.15471594E-1,-1.3906373E-1,1.5019322E-2],"split_indices":[0,1,0,6,1,0,0,0,1,0,7,6,1,0,0,0,0],"split_type":[0,0,0,0,0,0,0,0,0,0,0,0,0,0,0,0,0],"sum_hessian":[4.6909523E1,4.506758E1,1.8419408E0,2.610727E0,4.2456856E1,1.046699E0,1.5640281E0,1.0392869E0,4.141757E1,1.8546718E0,3.9562897E1,3.6131924E1,3.4309728E0,3.348399E1,2.647935E0,1.5897722E0,1.8412005E0],"tree_param":{"num_deleted":"0","num_feature":"8","num_nodes":"17","size_leaf_vector":"1"}},{"base_weights":[-6.949081E-3,-2.5032827E-1,9.8457895E-3,4.3280277E-2,-1.5483975E-1,-1.0005536E-2,1.09370746E-1,-1.0756672E-1,1.0946801E-2,3.557889E-2,-3.2046673E-1,-5.5870656E-2,1.14579745E-1,-2.6161427E-2,-1.18836425E-1,1.8866125E-2,-5.529395E-2,5.6126267E-2,-7.113605E-2],"categories":[],"categories_nodes":[],"categories_segments":[],"categories_sizes":[],"default_left":[0,0,0,0,0,0,0,0,0,0,0,0,0,0,0,0,0,0,0],"id":35,"left_children":[1,3,5,-1,-1,7,-1,-1,9,11,13,15,17,-1,-1,-1,-1,-1,-1],"loss_changes":[1.9642356E-1,3.9970517E-1,3.2299364E-1,0E0,0E0,3.2467282E-1,0E0,0E0,3.575325E-1,2.9803663E-1,1.8985718E-2,3.0722934E-1,6.050105E-1,0E0,0E0,0E0,0E0,0E0,0E0],"parents":[2147483647,0,0,1,1,2,2,5,5,8,8,9,9,10,10,11,11,12,12],"right_children":[2,4,6,-1,-1,8,-1,-1,10,12,14,16,18,-1,-1,-1,-1,-1,-1],"split_conditions":[1.8E1,1.18E2,1.76E2,4.3280277E-2,-1.5483975E-1,2.55E1,1.09370746E-1,-1.0756672E-1,5.7E1,3.1E1,5.26E-1,3.49E1,4E1,-2.6161427E-2,-1.18836425E-1,1.8866125E-2,-5.529395E-2,5.6126267E-2,-7.113605E-2],"split_indices":[3,1,1,0,0,5,0,0,7,7,6,5,3,0,0,0,0,0,0],"split_type":[0,0,0,0,0,0,0,0,0,0,0,0,0,0,0,0,0,0,0],"sum_hessian":[4.6451458E1,2.1009505E0,4.4350506E1,1.0296457E0,1.0713049E0,4.2920357E1,1.4301515E0,1.5200933E0,4.140026E1,3.936698E1,2.03328E0,1.8381624E1,2.0985357E1,1.025152E0,1.0081278E0,9.81608E0,8.565545E0,1.7786476E1,3.1988807E0],"tree_param":{"num_deleted":"0","num_feature":"8","num_nodes":"19","size_leaf_vector":"1"}},{"base_weights":[-1.1600916E-2,-9.887282E-2,3.2706346E-2,-2.3418023E-1,9.04192E-2,9.186684E-2,-1.3757592E-1,-3.4214804E-1,4.516068E-2,-2.1002543E-1,3.064566E-1,1.8751365E-1,-2.5641102E-1,-4.8729196E-1,2.3088829E-1,-1.7806655E-1,-1.9993146E-1,3.432397E-2,-1.6253194E-1,1.3194855E-1,-1.9598242E-2,6.518283E-2,4.8557213E-1,8.654294E-2,-4.829126E-1,-1.948525E-1,-2.592683E-2,-1.0090757E-1,5.42873E-1,-4.4515577E-1,5.6878462E-2,2.710362E-1,-5.1206082E-2,-4.8151415E-2,2.0686178E-1,-2.3467869E-2,-1.8181568E-1,4.6916537E-2,1.9056189E-1,-3.148832E-2,-1.7069453E-1,1.12545975E-1,-8.0936275E-2,-4.7659084E-2,1.7050052E-1,4.694293E-2,-8.7005384E-2],"categories":[],"categories_nodes":[],"categories_segments":[],"categories_sizes":[],"default_left":[0,0,0,0,0,0,0,0,0,0,0,0,0,0,0,0,0,0,0,0,0,0,0,0,0,0,0,0,0,0,0,0,0,0,0,0,0,0,0,0,0,0,0,0,0,0,0],"id":36,"left_children":[1,3,5,7,9,11,13,15,-1,17,19,21,23,25,27,29,-1,-1,-1,-1,-1,31,33,-1,35,-1,-1,-1,37,39,41,43,45,-1,-1,-1,-1,-1,-1,-1,-1,-1,-1,-1,-1,-1,-1],"loss_changes":[1.8490295E-1,4.327448E-1,3.341297E-1,4.5230836E-1,5.459586E-1,8.570218E-1,1.2244208E0,2.9851127E-1,0E0,4.5989293E-1,2.6291588E-1,6.84073E-1,8.3718383E-1,2.52658E-1,1.0462898E0,4.3764246E-1,0E0,0E0,0E0,0E0,0E0,3.7500033E-1,8.4296715E-1,0E0,1.7027104E-1,0E0,0E0,0E0,2.667284E-2,7.458645E-2,5.568512E-1,8.063798E-1,5.646427E-1,0E0,0E0,0E0,0E0,0E0,0E0,0E0,0E0,0E0,0E0,0E0,0E0,0E0,0E0],"parents":[2147483647,0,0,1,1,2,2,3,3,4,4,5,5,6,6,7,7,9,9,10,10,11,11,12,12,13,13,14,14,15,15,21,21,22,22,24,24,28,28,29,29,30,30,31,31,32,32],"right_children":[2,4,6,8,10,12,14,16,-1,18,20,22,24,26,28,30,-1,-1,-1,-1,-1,32,34,-1,36,-1,-1,-1,38,40,42,44,46,-1,-1,-1,-1,-1,-1,-1,-1,-1,-1,-1,-1,-1,-1],"split_conditions":[3.16E1,3.8E1,6E0,6E0,2.59E-1,4.1E1,4E1,7.5E1,4.516068E-2,2.06E-1,6.19E-1,3.1E1,2.9E1,8E0,1.07E2,1.17E2,-1.9993146E-1,3.432397E-2,-1.6253194E-1,1.3194855E-1,-1.9598242E-2,3.38E1,1.13E2,8.654294E-2,7.5E1,-1.948525E-1,-2.592683E-2,-1.0090757E-1,3.41E1,2.3E1,1.26E2,7.2E1,1.32E2,-4.8151415E-2,2.0686178E-1,-2.3467869E-2,-1.8181568E-1,4.6916537E-2,1.9056189E-1,-3.148832E-2,-1.7069453E-1,1.12545975E-1,-8.0936275E-2,-4.7659084E-2,1.7050052E-1,4.694293E-2,-8.7005384E-2],"split_indices":[5,7,0,0,6,7,7,2,0,6,6,7,3,0,1,1,0,0,0,0,0,5,1,0,2,0,0,0,5,3,4,2,4,0,0,0,0,0,0,0,0,0,0,0,0,0,0],"split_type":[0,0,0,0,0,0,0,0,0,0,0,0,0,0,0,0,0,0,0,0,0,0,0,0,0,0,0,0,0,0,0,0,0,0,0,0,0,0,0,0,0,0,0,0,0,0,0],"sum_hessian":[4.5982048E1,1.5069051E1,3.0912996E1,8.649316E0,6.4197354E0,2.3284023E1,7.628973E0,6.840285E0,1.8090305E0,2.6969283E0,3.7228074E0,1.8629454E1,4.654569E0,3.7486074E0,3.8803654E0,5.5707445E0,1.2695402E0,1.6946925E0,1.0022357E0,2.6052074E0,1.1176E0,1.4072452E1,4.557002E0,1.2863708E0,3.3681986E0,2.2271254E0,1.5214821E0,1.3491793E0,2.531186E0,2.1883125E0,3.382432E0,4.6028414E0,9.46961E0,1.1445773E0,3.4124248E0,1.1672877E0,2.2009108E0,1.0075529E0,1.5236332E0,1.0770144E0,1.1112982E0,1.6380394E0,1.7443926E0,2.0721362E0,2.5307052E0,5.2493176E0,4.220293E0],"tree_param":{"num_deleted":"0","num_feature":"8","num_nodes":"47","size_leaf_vector":"1"}},{"base_weights":[-1.5207565E-2,-1.5843326E-1,1.7426902E-2,-3.0513662E-1,1.5355055E-1,6.569611E-2,-1.0555092E-1,-5.996087E-3,-4.8331493E-1,-5.6573447E-2,1.2749754E-1,-3.3743974E-2,2.268571E-1,7.466974E-2,-1.9014709E-1,-7.119512E-2,7.64894E-2,-5.397812E-2,-1.9704416E-1,6.6363834E-2,-2.9673767E-1,1.348509E-2,5.0584966E-1,-2.7092403E-1,6.347658E-2,1.7245151E-1,-1.3725738E-1,-1.3803792E-1,3.0804E-2,1.5312682E-1,-1.5517944E-1,-2.356531E-2,2.1272507E-1,-3.6488914E-1,2.8008467E-2,-5.6055363E-2,8.795173E-2,-1.05263986E-1,5.506097E-2,-1.5067156E-1,2.568978E-2],"categories":[],"categories_nodes":[],"categories_segments":[],"categories_sizes":[],"default_left":[0,0,0,0,0,0,0,0,0,0,0,0,0,0,0,0,0,0,0,0,0,0,0,0,0,0,0,0,0,0,0,0,0,0,0,0,0,0,0,0,0],"id":37,"left_children":[1,3,5,7,9,11,13,15,17,-1,-1,19,21,-1,23,-1,-1,-1,-1,25,27,29,31,33,-1,35,-1,-1,-1,-1,37,-1,-1,39,-1,-1,-1,-1,-1,-1,-1],"loss_changes":[2.1551402E-1,4.3798727E-1,2.323358E-1,3.2475698E-1,3.9575264E-1,4.5453656E-1,3.797626E-1,2.6015484E-1,8.3951056E-2,0E0,0E0,4.9662393E-1,6.3429856E-1,0E0,3.6617282E-1,0E0,0E0,0E0,0E0,8.535493E-1,3.8510892E-1,6.7681277E-1,6.0677433E-1,3.2031947E-1,0E0,5.8903885E-1,0E0,0E0,0E0,0E0,4.6809316E-1,0E0,0E0,4.669755E-1,0E0,0E0,0E0,0E0,0E0,0E0,0E0],"parents":[2147483647,0,0,1,1,2,2,3,3,4,4,5,5,6,6,7,7,8,8,11,11,12,12,14,14,19,19,20,20,21,21,22,22,23,23,25,25,30,30,33,33],"right_children":[2,4,6,8,10,12,14,16,18,-1,-1,20,22,-1,24,-1,-1,-1,-1,26,28,30,32,34,-1,36,-1,-1,-1,-1,38,-1,-1,40,-1,-1,-1,-1,-1,-1,-1],"split_conditions":[1.25E2,7.27E-1,5.91E-1,1.16E2,1.07E2,3.42E-1,1.06E2,1.02E2,3.15E-1,-5.6573447E-2,1.2749754E-1,2.83E-1,3.6E1,7.466974E-2,1.182E0,-7.119512E-2,7.64894E-2,-5.397812E-2,-1.9704416E-1,1E1,3.1E1,3.75E-1,1.15E2,7E0,6.347658E-2,1.12E2,-1.3725738E-1,-1.3803792E-1,3.0804E-2,1.5312682E-1,5.28E-1,-2.356531E-2,2.1272507E-1,8.5E1,2.8008467E-2,-5.6055363E-2,8.795173E-2,-1.05263986E-1,5.506097E-2,-1.5067156E-1,2.568978E-2],"split_indices":[4,6,6,1,1,6,1,1,6,0,0,6,7,0,6,0,0,0,0,0,3,6,1,0,0,1,0,0,0,0,6,0,0,2,0,0,0,0,0,0,0],"split_type":[0,0,0,0,0,0,0,0,0,0,0,0,0,0,0,0,0,0,0,0,0,0,0,0,0,0,0,0,0,0,0,0,0,0,0,0,0,0,0,0,0],"sum_hessian":[4.4517487E1,7.545801E0,3.6971687E1,5.1473317E0,2.3984694E0,2.6885017E1,1.0086671E1,2.3072991E0,2.8400326E0,1.1961253E0,1.2023442E0,1.7115173E1,9.769842E0,1.5692898E0,8.517381E0,1.2711384E0,1.0361607E0,1.7743592E0,1.0656732E0,1.2938016E1,4.177159E0,6.1299925E0,3.63985E0,7.3626E0,1.154781E0,1.1317118E1,1.620898E0,2.8566172E0,1.3205416E0,1.0398917E0,5.090101E0,1.0974935E0,2.5423565E0,5.851569E0,1.5110308E0,2.7083716E0,8.608746E0,3.2033715E0,1.8867292E0,4.3964434E0,1.4551256E0],"tree_param":{"num_deleted":"0","num_feature":"8","num_nodes":"41","size_leaf_vector":"1"}},{"base_weights":[-1.203633E-2,-4.6022154E-2,1.04898795E-1,-1.6533276E-1,2.3263479E-2,-1.7266548E-1,2.7690914E-1,-2.7528206E-2,-3.8076112E-1,7.094662E-2,-2.4002385E-1,-1.455481E-1,8.632533E-2,4.930014E-1,2.0191686E-2,-1.13970794E-1,8.712618E-2,1.0721032E-2,-5.048332E-1,-1.7853872E-3,1.905152E-1,-1.3607714E-1,5.215874E-2,8.486819E-2,-4.5815893E-2,3.3548646E-2,1.9924967E-1,1.249291E-1,-1.0425548E-1,1.7049283E-1,-6.690401E-2,-1.8069358E-1,-4.8717804E-2,1.4519961E-1,-2.1245405E-1,3.3435365E-4,1.2683408E-1,-1.01329125E-1,8.592572E-2,-1.1317985E-1,6.291352E-2],"categories":[],"categories_nodes":[],"categories_segments":[],"categories_sizes":[],"default_left":[0,0,0,0,0,0,0,0,0,0,0,0,0,0,0,0,0,0,0,0,0,0,0,0,0,0,0,0,0,0,0,0,0,0,0,0,0,0,0,0,0],"id":38,"left_children":[1,3,5,7,9,11,13,15,17,19,21,-1,23,25,27,-1,29,-1,31,33,-1,-1,-1,-1,-1,-1,-1,-1,-1,35,-1,-1,-1,37,39,-1,-1,-1,-1,-1,-1],"loss_changes":[1.809522E-1,2.934458E-1,5.3885055E-1,3.752585E-1,3.062727E-1,4.1020736E-1,3.6360317E-1,3.968078E-1,2.759635E-1,8.3312386E-1,4.1129804E-1,0E0,2.0002711E-1,1.614837E-1,7.450532E-1,0E0,2.3467179E-1,0E0,3.2764018E-2,6.179354E-1,0E0,0E0,0E0,0E0,0E0,0E0,0E0,0E0,